-1.61529 -1.32736 -0.735622 -0.0650976 1.65627 1.2564 1.63795 0.922 -1.4747 1.581 0.13875 -0.60345 -0.80695 -0.2153 -1.60865 -1.5758 0.2517 -1.43235 -0.04735 -1.5546 0.93265 -0.0388 -0.72405 1.24185 1.55245 -0.4617 1.48865 -1.0053 -1.34015 1.57005 0.04805 
-1.61529 -1.32736 -0.735622 -0.0650976 1.65627 1.16606 1.51971 0.773363 -1.392 1.38182 0.13875 -0.60345 -0.80695 -0.2153 -1.60865 -1.5758 0.2517 -1.43235 -0.04735 -1.5546 0.93265 -0.0388 -0.72405 1.24185 1.55245 -0.4617 1.48865 -1.0053 -1.34015 1.57005 0.04805 
-1.61529 -1.32736 -0.735622 -0.0650976 1.65627 1.16606 1.51971 0.773363 -1.392 1.38182 0.108848 -0.675721 -0.989361 -0.27583 -1.66387 -1.5758 0.2517 -1.43235 -0.04735 -1.5546 0.93265 -0.0388 -0.72405 1.24185 1.55245 -0.4617 1.48865 -1.0053 -1.34015 1.57005 0.04805 
-1.61529 -1.32736 -0.735622 -0.0650976 1.65627 1.16606 1.51971 0.773363 -1.392 1.38182 0.108848 -0.675721 -0.989361 -0.27583 -1.66387 -1.79213 0.375737 -1.51256 0.045633 -1.53406 0.93265 -0.0388 -0.72405 1.24185 1.55245 -0.4617 1.48865 -1.0053 -1.34015 1.57005 0.04805 
-1.61529 -1.32736 -0.735622 -0.0650976 1.65627 1.16606 1.51971 0.773363 -1.392 1.38182 0.108848 -0.675721 -0.989361 -0.27583 -1.66387 -1.79213 0.375737 -1.51256 0.045633 -1.53406 0.758138 0.0926481 -0.730445 1.48642 1.71678 -0.4617 1.48865 -1.0053 -1.34015 1.57005 0.04805 
-1.61529 -1.32736 -0.735622 -0.0650976 1.65627 1.16606 1.51971 0.773363 -1.392 1.38182 0.108848 -0.675721 -0.989361 -0.27583 -1.66387 -1.79213 0.375737 -1.51256 0.045633 -1.53406 0.758138 0.0926481 -0.730445 1.48642 1.71678 -0.58456 1.5197 -0.853029 -1.19529 1.73098 0.121891 
-1.2267 -1.35021 -0.94322 -0.203028 1.50791 1.16606 1.51971 0.773363 -1.392 1.38182 0.108848 -0.675721 -0.989361 -0.27583 -1.66387 -1.79213 0.375737 -1.51256 0.045633 -1.53406 0.758138 0.0926481 -0.730445 1.48642 1.71678 -0.58456 1.5197 -0.853029 -1.19529 1.73098 0.121891 
-1.2267 -1.35021 -0.94322 -0.203028 1.50791 1.39471 1.59694 0.911392 -1.33399 1.65633 0.108848 -0.675721 -0.989361 -0.27583 -1.66387 -1.79213 0.375737 -1.51256 0.045633 -1.53406 0.758138 0.0926481 -0.730445 1.48642 1.71678 -0.58456 1.5197 -0.853029 -1.19529 1.73098 0.121891 
-1.2267 -1.35021 -0.94322 -0.203028 1.50791 1.39471 1.59694 0.911392 -1.33399 1.65633 0.22368 -0.875251 -1.10829 -0.445203 -1.58294 -1.79213 0.375737 -1.51256 0.045633 -1.53406 0.758138 0.0926481 -0.730445 1.48642 1.71678 -0.58456 1.5197 -0.853029 -1.19529 1.73098 0.121891 
-1.2267 -1.35021 -0.94322 -0.203028 1.50791 1.39471 1.59694 0.911392 -1.33399 1.65633 0.22368 -0.875251 -1.10829 -0.445203 -1.58294 -2.10115 0.167934 -1.76816 -0.10347 -1.39722 0.758138 0.0926481 -0.730445 1.48642 1.71678 -0.58456 1.5197 -0.853029 -1.19529 1.73098 0.121891 
-1.2267 -1.35021 -0.94322 -0.203028 1.50791 1.39471 1.59694 0.911392 -1.33399 1.65633 0.22368 -0.875251 -1.10829 -0.445203 -1.58294 -2.10115 0.167934 -1.76816 -0.10347 -1.39722 0.765124 0.0936472 -0.696475 1.4375 1.76764 -0.58456 1.5197 -0.853029 -1.19529 1.73098 0.121891 
-1.2267 -1.35021 -0.94322 -0.203028 1.50791 1.39471 1.59694 0.911392 -1.33399 1.65633 0.22368 -0.875251 -1.10829 -0.445203 -1.58294 -2.10115 0.167934 -1.76816 -0.10347 -1.39722 0.765124 0.0936472 -0.696475 1.4375 1.76764 -0.681882 1.75909 -0.994138 -1.35479 1.96414 0.0165062 
-0.81855 0.2876 0.77165 -1.45325 0.12005 1.39471 1.59694 0.911392 -1.33399 1.65633 0.22368 -0.875251 -1.10829 -0.445203 -1.58294 -2.10115 0.167934 -1.76816 -0.10347 -1.39722 0.765124 0.0936472 -0.696475 1.4375 1.76764 -0.681882 1.75909 -0.994138 -1.35479 1.96414 0.0165062 
-0.81855 0.2876 0.77165 -1.45325 0.12005 1.20633 1.81629 1.20922 -1.44012 1.73195 0.22368 -0.875251 -1.10829 -0.445203 -1.58294 -2.10115 0.167934 -1.76816 -0.10347 -1.39722 0.765124 0.0936472 -0.696475 1.4375 1.76764 -0.681882 1.75909 -0.994138 -1.35479 1.96414 0.0165062 
-0.81855 0.2876 0.77165 -1.45325 0.12005 1.20633 1.81629 1.20922 -1.44012 1.73195 0.185616 -1.18462 -0.973072 -0.385326 -1.50009 -2.10115 0.167934 -1.76816 -0.10347 -1.39722 0.765124 0.0936472 -0.696475 1.4375 1.76764 -0.681882 1.75909 -0.994138 -1.35479 1.96414 0.0165062 
-0.81855 0.2876 0.77165 -1.45325 0.12005 1.20633 1.81629 1.20922 -1.44012 1.73195 0.185616 -1.18462 -0.973072 -0.385326 -1.50009 -2.16383 0.0370647 -2.02194 -0.00345699 -1.63593 0.765124 0.0936472 -0.696475 1.4375 1.76764 -0.681882 1.75909 -0.994138 -1.35479 1.96414 0.0165062 
-0.81855 0.2876 0.77165 -1.45325 0.12005 1.20633 1.81629 1.20922 -1.44012 1.73195 0.185616 -1.18462 -0.973072 -0.385326 -1.50009 -2.16383 0.0370647 -2.02194 -0.00345699 -1.63593 1.01676 0.302524 -0.529502 1.46116 2.11183 -0.681882 1.75909 -0.994138 -1.35479 1.96414 0.0165062 
-0.81855 0.2876 0.77165 -1.45325 0.12005 1.20633 1.81629 1.20922 -1.44012 1.73195 0.185616 -1.18462 -0.973072 -0.385326 -1.50009 -2.16383 0.0370647 -2.02194 -0.00345699 -1.63593 1.01676 0.302524 -0.529502 1.46116 2.11183 -0.909776 1.87433 -1.13847 -1.27235 2.00551 -0.0909935 
-0.978191 0.275475 0.667139 -1.313 0.169458 1.20633 1.81629 1.20922 -1.44012 1.73195 0.185616 -1.18462 -0.973072 -0.385326 -1.50009 -2.16383 0.0370647 -2.02194 -0.00345699 -1.63593 1.01676 0.302524 -0.529502 1.46116 2.11183 -0.909776 1.87433 -1.13847 -1.27235 2.00551 -0.0909935 
-0.978191 0.275475 0.667139 -1.313 0.169458 1.46586 1.93495 1.51792 -1.68594 1.9819 0.185616 -1.18462 -0.973072 -0.385326 -1.50009 -2.16383 0.0370647 -2.02194 -0.00345699 -1.63593 1.01676 0.302524 -0.529502 1.46116 2.11183 -0.909776 1.87433 -1.13847 -1.27235 2.00551 -0.0909935 
-0.978191 0.275475 0.667139 -1.313 0.169458 1.46586 1.93495 1.51792 -1.68594 1.9819 0.258925 -1.17969 -1.08223 -0.605623 -1.38571 -2.16383 0.0370647 -2.02194 -0.00345699 -1.63593 1.01676 0.302524 -0.529502 1.46116 2.11183 -0.909776 1.87433 -1.13847 -1.27235 2.00551 -0.0909935 
-0.978191 0.275475 0.667139 -1.313 0.169458 1.46586 1.93495 1.51792 -1.68594 1.9819 0.258925 -1.17969 -1.08223 -0.605623 -1.38571 -2.41163 0.0443881 -2.13909 -0.0578285 -1.69947 1.01676 0.302524 -0.529502 1.46116 2.11183 -0.909776 1.87433 -1.13847 -1.27235 2.00551 -0.0909935 
-0.978191 0.275475 0.667139 -1.313 0.169458 1.46586 1.93495 1.51792 -1.68594 1.9819 0.258925 -1.17969 -1.08223 -0.605623 -1.38571 -2.41163 0.0443881 -2.13909 -0.0578285 -1.69947 1.13522 0.115579 -0.312232 1.39296 2.23772 -0.909776 1.87433 -1.13847 -1.27235 2.00551 -0.0909935 
-0.978191 0.275475 0.667139 -1.313 0.169458 1.46586 1.93495 1.51792 -1.68594 1.9819 0.258925 -1.17969 -1.08223 -0.605623 -1.38571 -2.41163 0.0443881 -2.13909 -0.0578285 -1.69947 1.13522 0.115579 -0.312232 1.39296 2.23772 -0.981483 1.83897 -1.20107 -1.08232 1.9349 -0.0744541 
-0.903 0.18765 -0.62115 -1.2998 -0.62645 1.46586 1.93495 1.51792 -1.68594 1.9819 0.258925 -1.17969 -1.08223 -0.605623 -1.38571 -2.41163 0.0443881 -2.13909 -0.0578285 -1.69947 1.13522 0.115579 -0.312232 1.39296 2.23772 -0.981483 1.83897 -1.20107 -1.08232 1.9349 -0.0744541 
-0.903 0.18765 -0.62115 -1.2998 -0.62645 1.49456 1.90477 1.66833 -1.71076 2.10483 0.258925 -1.17969 -1.08223 -0.605623 -1.38571 -2.41163 0.0443881 -2.13909 -0.0578285 -1.69947 1.13522 0.115579 -0.312232 1.39296 2.23772 -0.981483 1.83897 -1.20107 -1.08232 1.9349 -0.0744541 
-0.903 0.18765 -0.62115 -1.2998 -0.62645 1.49456 1.90477 1.66833 -1.71076 2.10483 0.346397 -1.1866 -1.34162 -0.613918 -1.18333 -2.41163 0.0443881 -2.13909 -0.0578285 -1.69947 1.13522 0.115579 -0.312232 1.39296 2.23772 -0.981483 1.83897 -1.20107 -1.08232 1.9349 -0.0744541 
-0.903 0.18765 -0.62115 -1.2998 -0.62645 1.49456 1.90477 1.66833 -1.71076 2.10483 0.346397 -1.1866 -1.34162 -0.613918 -1.18333 -2.47956 -0.0302431 -2.68165 -0.0568265 -2.11633 1.13522 0.115579 -0.312232 1.39296 2.23772 -0.981483 1.83897 -1.20107 -1.08232 1.9349 -0.0744541 
-0.903 0.18765 -0.62115 -1.2998 -0.62645 1.49456 1.90477 1.66833 -1.71076 2.10483 0.346397 -1.1866 -1.34162 -0.613918 -1.18333 -2.47956 -0.0302431 -2.68165 -0.0568265 -2.11633 1.02356 0.103198 -0.369245 1.38124 2.29841 -0.981483 1.83897 -1.20107 -1.08232 1.9349 -0.0744541 
-0.903 0.18765 -0.62115 -1.2998 -0.62645 1.49456 1.90477 1.66833 -1.71076 2.10483 0.346397 -1.1866 -1.34162 -0.613918 -1.18333 -2.47956 -0.0302431 -2.68165 -0.0568265 -2.11633 1.02356 0.103198 -0.369245 1.38124 2.29841 -1.28774 2.0474 -1.25109 -1.03323 1.81206 -0.237552 
-0.660476 -0.0488039 -0.4975 -1.10263 -0.642328 1.49456 1.90477 1.66833 -1.71076 2.10483 0.346397 -1.1866 -1.34162 -0.613918 -1.18333 -2.47956 -0.0302431 -2.68165 -0.0568265 -2.11633 1.02356 0.103198 -0.369245 1.38124 2.29841 -1.28774 2.0474 -1.25109 -1.03323 1.81206 -0.237552 
-0.660476 -0.0488039 -0.4975 -1.10263 -0.642328 1.47803 1.93695 1.69684 -1.45519 2.16682 0.346397 -1.1866 -1.34162 -0.613918 -1.18333 -2.47956 -0.0302431 -2.68165 -0.0568265 -2.11633 1.02356 0.103198 -0.369245 1.38124 2.29841 -1.28774 2.0474 -1.25109 -1.03323 1.81206 -0.237552 
-0.660476 -0.0488039 -0.4975 -1.10263 -0.642328 1.47803 1.93695 1.69684 -1.45519 2.16682 0.253659 -1.12347 -1.26597 -0.604593 -1.23473 -2.47956 -0.0302431 -2.68165 -0.0568265 -2.11633 1.02356 0.103198 -0.369245 1.38124 2.29841 -1.28774 2.0474 -1.25109 -1.03323 1.81206 -0.237552 
-0.660476 -0.0488039 -0.4975 -1.10263 -0.642328 1.47803 1.93695 1.69684 -1.45519 2.16682 0.253659 -1.12347 -1.26597 -0.604593 -1.23473 -2.48472 0.0245677 -2.7444 -0.133606 -2.15098 1.02356 0.103198 -0.369245 1.38124 2.29841 -1.28774 2.0474 -1.25109 -1.03323 1.81206 -0.237552 
-0.660476 -0.0488039 -0.4975 -1.10263 -0.642328 1.47803 1.93695 1.69684 -1.45519 2.16682 0.253659 -1.12347 -1.26597 -0.604593 -1.23473 -2.48472 0.0245677 -2.7444 -0.133606 -2.15098 0.845945 0.176337 -0.585117 1.22398 2.24715 -1.28774 2.0474 -1.25109 -1.03323 1.81206 -0.237552 
-0.660476 -0.0488039 -0.4975 -1.10263 -0.642328 1.47803 1.93695 1.69684 -1.45519 2.16682 0.253659 -1.12347 -1.26597 -0.604593 -1.23473 -2.48472 0.0245677 -2.7444 -0.133606 -2.15098 0.845945 0.176337 -0.585117 1.22398 2.24715 -1.0502 1.84993 -1.4422 -1.09216 1.98057 -0.295101 
-0.710681 -0.189158 -0.418468 -1.16479 -0.587562 1.47803 1.93695 1.69684 -1.45519 2.16682 0.253659 -1.12347 -1.26597 -0.604593 -1.23473 -2.48472 0.0245677 -2.7444 -0.133606 -2.15098 0.845945 0.176337 -0.585117 1.22398 2.24715 -1.0502 1.84993 -1.4422 -1.09216 1.98057 -0.295101 
-0.710681 -0.189158 -0.418468 -1.16479 -0.587562 1.4287 1.97673 1.78002 -1.37287 2.2762 0.253659 -1.12347 -1.26597 -0.604593 -1.23473 -2.48472 0.0245677 -2.7444 -0.133606 -2.15098 0.845945 0.176337 -0.585117 1.22398 2.24715 -1.0502 1.84993 -1.4422 -1.09216 1.98057 -0.295101 
-0.710681 -0.189158 -0.418468 -1.16479 -0.587562 1.4287 1.97673 1.78002 -1.37287 2.2762 0.415115 -0.750975 -1.08451 -0.487728 -1.07159 -2.48472 0.0245677 -2.7444 -0.133606 -2.15098 0.845945 0.176337 -0.585117 1.22398 2.24715 -1.0502 1.84993 -1.4422 -1.09216 1.98057 -0.295101 
-0.710681 -0.189158 -0.418468 -1.16479 -0.587562 1.4287 1.97673 1.78002 -1.37287 2.2762 0.253659 -1.12347 -1.26597 -0.604593 -1.23473 -2.67429 0.0496796 -2.7507 -0.242873 -2.30111 0.845945 0.176337 -0.585117 1.22398 2.24715 -1.0502 1.84993 -1.4422 -1.09216 1.98057 -0.295101 
-0.710681 -0.189158 -0.418468 -1.16479 -0.587562 1.4287 1.97673 1.78002 -1.37287 2.2762 0.253659 -1.12347 -1.26597 -0.604593 -1.23473 -2.67429 0.0496796 -2.7507 -0.242873 -2.30111 0.892107 0.0652314 -0.517142 1.35646 2.13654 -1.0502 1.84993 -1.4422 -1.09216 1.98057 -0.295101 
-0.710681 -0.189158 -0.418468 -1.16479 -0.587562 1.4287 1.97673 1.78002 -1.37287 2.2762 0.253659 -1.12347 -1.26597 -0.604593 -1.23473 -2.67429 0.0496796 -2.7507 -0.242873 -2.30111 0.892107 0.0652314 -0.517142 1.35646 2.13654 -1.03541 1.88864 -1.42702 -1.14222 1.87776 -0.228151 
-0.766191 0.00821352 -0.25717 -1.0382 -0.596713 1.4287 1.97673 1.78002 -1.37287 2.2762 0.253659 -1.12347 -1.26597 -0.604593 -1.23473 -2.67429 0.0496796 -2.7507 -0.242873 -2.30111 0.892107 0.0652314 -0.517142 1.35646 2.13654 -1.03541 1.88864 -1.42702 -1.14222 1.87776 -0.228151 
-0.710681 -0.189158 -0.418468 -1.16479 -0.587562 1.38766 2.15464 2.40053 -1.59532 2.40527 0.253659 -1.12347 -1.26597 -0.604593 -1.23473 -2.67429 0.0496796 -2.7507 -0.242873 -2.30111 0.892107 0.0652314 -0.517142 1.35646 2.13654 -1.03541 1.88864 -1.42702 -1.14222 1.87776 -0.228151 
-0.710681 -0.189158 -0.418468 -1.16479 -0.587562 1.4287 1.97673 1.78002 -1.37287 2.2762 0.132942 -1.11829 -1.54986 -0.681102 -1.29875 -2.67429 0.0496796 -2.7507 -0.242873 -2.30111 0.892107 0.0652314 -0.517142 1.35646 2.13654 -1.03541 1.88864 -1.42702 -1.14222 1.87776 -0.228151 
-0.710681 -0.189158 -0.418468 -1.16479 -0.587562 1.4287 1.97673 1.78002 -1.37287 2.2762 0.132942 -1.11829 -1.54986 -0.681102 -1.29875 -2.61555 0.0362046 -2.67151 -0.26613 -2.29676 0.892107 0.0652314 -0.517142 1.35646 2.13654 -1.03541 1.88864 -1.42702 -1.14222 1.87776 -0.228151 
-0.710681 -0.189158 -0.418468 -1.16479 -0.587562 1.4287 1.97673 1.78002 -1.37287 2.2762 0.132942 -1.11829 -1.54986 -0.681102 -1.29875 -2.61555 0.0362046 -2.67151 -0.26613 -2.29676 0.994426 0.18466 -0.719309 1.24566 2.05679 -1.03541 1.88864 -1.42702 -1.14222 1.87776 -0.228151 
-0.710681 -0.189158 -0.418468 -1.16479 -0.587562 1.4287 1.97673 1.78002 -1.37287 2.2762 0.132942 -1.11829 -1.54986 -0.681102 -1.29875 -2.61555 0.0362046 -2.67151 -0.26613 -2.29676 0.994426 0.18466 -0.719309 1.24566 2.05679 -1.06551 1.81003 -1.51425 -1.12184 1.81997 -0.263328 
-0.540765 0.0683985 -0.699238 -1.51982 -0.407927 1.4287 1.97673 1.78002 -1.37287 2.2762 0.132942 -1.11829 -1.54986 -0.681102 -1.29875 -2.61555 0.0362046 -2.67151 -0.26613 -2.29676 0.994426 0.18466 -0.719309 1.24566 2.05679 -1.06551 1.81003 -1.51425 -1.12184 1.81997 -0.263328 
-0.540765 0.0683985 -0.699238 -1.51982 -0.407927 1.5663 1.75897 1.55417 -1.38845 2.19892 0.132942 -1.11829 -1.54986 -0.681102 -1.29875 -2.61555 0.0362046 -2.67151 -0.26613 -2.29676 0.994426 0.18466 -0.719309 1.24566 2.05679 -1.06551 1.81003 -1.51425 -1.12184 1.81997 -0.263328 
-0.540765 0.0683985 -0.699238 -1.51982 -0.407927 1.5663 1.75897 1.55417 -1.38845 2.19892 0.256946 -1.02063 -1.35456 -0.559866 -1.32391 -2.61555 0.0362046 -2.67151 -0.26613 -2.29676 0.994426 0.18466 -0.719309 1.24566 2.05679 -1.06551 1.81003 -1.51425 -1.12184 1.81997 -0.263328 
-0.540765 0.0683985 -0.699238 -1.51982 -0.407927 1.5663 1.75897 1.55417 -1.38845 2.19892 0.132942 -1.11829 -1.54986 -0.681102 -1.29875 -2.59956 -0.0597494 -2.59857 -0.258083 -2.313 0.994426 0.18466 -0.719309 1.24566 2.05679 -1.06551 1.81003 -1.51425 -1.12184 1.81997 -0.263328 
-0.540765 0.0683985 -0.699238 -1.51982 -0.407927 1.5663 1.75897 1.55417 -1.38845 2.19892 0.132942 -1.11829 -1.54986 -0.681102 -1.29875 -2.59956 -0.0597494 -2.59857 -0.258083 -2.313 1.03796 0.20857 -0.5448 1.14972 2.21721 -1.06551 1.81003 -1.51425 -1.12184 1.81997 -0.263328 
-0.540765 0.0683985 -0.699238 -1.51982 -0.407927 1.5663 1.75897 1.55417 -1.38845 2.19892 0.132942 -1.11829 -1.54986 -0.681102 -1.29875 -2.59956 -0.0597494 -2.59857 -0.258083 -2.313 1.03796 0.20857 -0.5448 1.14972 2.21721 -0.917555 1.8517 -1.44324 -0.89763 1.86262 -0.10552 
-0.591253 0.0553665 -0.715872 -1.47311 -0.274534 1.5663 1.75897 1.55417 -1.38845 2.19892 0.132942 -1.11829 -1.54986 -0.681102 -1.29875 -2.59956 -0.0597494 -2.59857 -0.258083 -2.313 1.03796 0.20857 -0.5448 1.14972 2.21721 -1.06551 1.81003 -1.51425 -1.12184 1.81997 -0.263328 
-0.540765 0.0683985 -0.699238 -1.51982 -0.407927 1.41606 1.47558 1.57661 -1.27903 2.03022 0.132942 -1.11829 -1.54986 -0.681102 -1.29875 -2.59956 -0.0597494 -2.59857 -0.258083 -2.313 1.03796 0.20857 -0.5448 1.14972 2.21721 -1.06551 1.81003 -1.51425 -1.12184 1.81997 -0.263328 
-0.540765 0.0683985 -0.699238 -1.51982 -0.407927 1.41606 1.47558 1.57661 -1.27903 2.03022 -0.110004 -1.22255 -1.70917 -0.484556 -1.3264 -2.59956 -0.0597494 -2.59857 -0.258083 -2.313 1.03796 0.20857 -0.5448 1.14972 2.21721 -1.06551 1.81003 -1.51425 -1.12184 1.81997 -0.263328 
-0.540765 0.0683985 -0.699238 -1.51982 -0.407927 1.41606 1.47558 1.57661 -1.27903 2.03022 -0.110004 -1.22255 -1.70917 -0.484556 -1.3264 -2.5799 -0.110278 -2.37942 -0.23609 -2.25071 1.03796 0.20857 -0.5448 1.14972 2.21721 -1.06551 1.81003 -1.51425 -1.12184 1.81997 -0.263328 
-0.540765 0.0683985 -0.699238 -1.51982 -0.407927 1.41606 1.47558 1.57661 -1.27903 2.03022 -0.110004 -1.22255 -1.70917 -0.484556 -1.3264 -2.5799 -0.110278 -2.37942 -0.23609 -2.25071 1.01183 0.159237 -0.488588 1.01947 2.18059 -1.06551 1.81003 -1.51425 -1.12184 1.81997 -0.263328 
-0.540765 0.0683985 -0.699238 -1.51982 -0.407927 1.41606 1.47558 1.57661 -1.27903 2.03022 -0.110004 -1.22255 -1.70917 -0.484556 -1.3264 -2.5799 -0.110278 -2.37942 -0.23609 -2.25071 1.01183 0.159237 -0.488588 1.01947 2.18059 -0.914313 1.84069 -1.4987 -1.35209 1.81434 -0.398726 
-0.50432 -0.093112 -0.770826 -1.5772 -0.611023 1.41606 1.47558 1.57661 -1.27903 2.03022 -0.110004 -1.22255 -1.70917 -0.484556 -1.3264 -2.5799 -0.110278 -2.37942 -0.23609 -2.25071 1.01183 0.159237 -0.488588 1.01947 2.18059 -1.06551 1.81003 -1.51425 -1.12184 1.81997 -0.263328 
-0.50432 -0.093112 -0.770826 -1.5772 -0.611023 1.1766 0.8079 -1.231 0.9862 1.2263 -0.110004 -1.22255 -1.70917 -0.484556 -1.3264 -2.5799 -0.110278 -2.37942 -0.23609 -2.25071 1.01183 0.159237 -0.488588 1.01947 2.18059 -1.06551 1.81003 -1.51425 -1.12184 1.81997 -0.263328 
-0.50432 -0.093112 -0.770826 -1.5772 -0.611023 1.41606 1.47558 1.57661 -1.27903 2.03022 -0.0314284 -1.16388 -1.99983 -0.580104 -1.25085 -2.5799 -0.110278 -2.37942 -0.23609 -2.25071 1.01183 0.159237 -0.488588 1.01947 2.18059 -1.06551 1.81003 -1.51425 -1.12184 1.81997 -0.263328 
-0.50432 -0.093112 -0.770826 -1.5772 -0.611023 1.41606 1.47558 1.57661 -1.27903 2.03022 -0.0314284 -1.16388 -1.99983 -0.580104 -1.25085 -2.58491 -0.128567 -2.23903 -0.190909 -2.1801 1.01183 0.159237 -0.488588 1.01947 2.18059 -1.06551 1.81003 -1.51425 -1.12184 1.81997 -0.263328 
-0.50432 -0.093112 -0.770826 -1.5772 -0.611023 1.41606 1.47558 1.57661 -1.27903 2.03022 -0.0314284 -1.16388 -1.99983 -0.580104 -1.25085 -2.58491 -0.128567 -2.23903 -0.190909 -2.1801 0.837591 0.279468 -0.397432 0.993734 2.20279 -1.06551 1.81003 -1.51425 -1.12184 1.81997 -0.263328 
-0.50432 -0.093112 -0.770826 -1.5772 -0.611023 1.41606 1.47558 1.57661 -1.27903 2.03022 -0.0314284 -1.16388 -1.99983 -0.580104 -1.25085 -2.58491 -0.128567 -2.23903 -0.190909 -2.1801 0.837591 0.279468 -0.397432 0.993734 2.20279 -1.15176 1.73945 -1.85702 -1.26583 2.23001 -0.392847 
0.24415 -1.13295 -1.0193 -1.63825 -0.842 1.41606 1.47558 1.57661 -1.27903 2.03022 -0.0314284 -1.16388 -1.99983 -0.580104 -1.25085 -2.58491 -0.128567 -2.23903 -0.190909 -2.1801 0.837591 0.279468 -0.397432 0.993734 2.20279 -1.06551 1.81003 -1.51425 -1.12184 1.81997 -0.263328 
0.24415 -1.13295 -1.0193 -1.63825 -0.842 1.57826 1.55872 1.59595 -1.2265 2.20874 -0.0314284 -1.16388 -1.99983 -0.580104 -1.25085 -2.58491 -0.128567 -2.23903 -0.190909 -2.1801 0.837591 0.279468 -0.397432 0.993734 2.20279 -1.06551 1.81003 -1.51425 -1.12184 1.81997 -0.263328 
0.24415 -1.13295 -1.0193 -1.63825 -0.842 1.57826 1.55872 1.59595 -1.2265 2.20874 -0.077205 -1.09473 -1.83307 -0.503288 -1.15433 -2.58491 -0.128567 -2.23903 -0.190909 -2.1801 0.837591 0.279468 -0.397432 0.993734 2.20279 -1.06551 1.81003 -1.51425 -1.12184 1.81997 -0.263328 
0.24415 -1.13295 -1.0193 -1.63825 -0.842 1.57826 1.55872 1.59595 -1.2265 2.20874 -0.077205 -1.09473 -1.83307 -0.503288 -1.15433 -2.452 -0.12175 -2.1427 -0.110969 -1.90381 0.837591 0.279468 -0.397432 0.993734 2.20279 -1.06551 1.81003 -1.51425 -1.12184 1.81997 -0.263328 
0.24415 -1.13295 -1.0193 -1.63825 -0.842 1.57826 1.55872 1.59595 -1.2265 2.20874 -0.077205 -1.09473 -1.83307 -0.503288 -1.15433 -2.452 -0.12175 -2.1427 -0.110969 -1.90381 0.805684 0.44198 -0.63412 1.17681 2.48476 -1.06551 1.81003 -1.51425 -1.12184 1.81997 -0.263328 
0.24415 -1.13295 -1.0193 -1.63825 -0.842 1.57826 1.55872 1.59595 -1.2265 2.20874 -0.077205 -1.09473 -1.83307 -0.503288 -1.15433 -2.452 -0.12175 -2.1427 -0.110969 -1.90381 0.805684 0.44198 -0.63412 1.17681 2.48476 -0.939383 1.46197 -1.32229 -1.0786 1.43969 -0.311802 
0.495076 -1.19355 -1.19491 -1.66189 -0.949968 1.57826 1.55872 1.59595 -1.2265 2.20874 -0.077205 -1.09473 -1.83307 -0.503288 -1.15433 -2.452 -0.12175 -2.1427 -0.110969 -1.90381 0.805684 0.44198 -0.63412 1.17681 2.48476 -1.06551 1.81003 -1.51425 -1.12184 1.81997 -0.263328 
0.24415 -1.13295 -1.0193 -1.63825 -0.842 1.40961 1.61152 1.68474 -1.42906 2.09658 -0.077205 -1.09473 -1.83307 -0.503288 -1.15433 -2.452 -0.12175 -2.1427 -0.110969 -1.90381 0.805684 0.44198 -0.63412 1.17681 2.48476 -1.06551 1.81003 -1.51425 -1.12184 1.81997 -0.263328 
0.24415 -1.13295 -1.0193 -1.63825 -0.842 1.40961 1.61152 1.68474 -1.42906 2.09658 0.033935 -1.07934 -2.17778 -0.613967 -1.23192 -2.452 -0.12175 -2.1427 -0.110969 -1.90381 0.805684 0.44198 -0.63412 1.17681 2.48476 -1.06551 1.81003 -1.51425 -1.12184 1.81997 -0.263328 
0.24415 -1.13295 -1.0193 -1.63825 -0.842 1.40961 1.61152 1.68474 -1.42906 2.09658 0.033935 -1.07934 -2.17778 -0.613967 -1.23192 -2.6146 -0.14551 -2.30867 -0.342848 -2.07966 0.805684 0.44198 -0.63412 1.17681 2.48476 -1.06551 1.81003 -1.51425 -1.12184 1.81997 -0.263328 
0.24415 -1.13295 -1.0193 -1.63825 -0.842 1.40961 1.61152 1.68474 -1.42906 2.09658 0.033935 -1.07934 -2.17778 -0.613967 -1.23192 -2.6146 -0.14551 -2.30867 -0.342848 -2.07966 0.805684 0.44198 -0.63412 1.17681 2.48476 -1.06551 1.81003 -1.51425 -1.12184 1.81997 -0.263328 
0.24415 -1.13295 -1.0193 -1.63825 -0.842 1.40961 1.61152 1.68474 -1.42906 2.09658 0.033935 -1.07934 -2.17778 -0.613967 -1.23192 -2.6146 -0.14551 -2.30867 -0.342848 -2.07966 0.805684 0.44198 -0.63412 1.17681 2.48476 -1.11791 1.96951 -1.63091 -1.04464 2.12306 -0.131222 
0.248878 -1.1152 -1.1361 -1.62397 -0.779795 1.40961 1.61152 1.68474 -1.42906 2.09658 0.033935 -1.07934 -2.17778 -0.613967 -1.23192 -2.6146 -0.14551 -2.30867 -0.342848 -2.07966 0.805684 0.44198 -0.63412 1.17681 2.48476 -1.11791 1.96951 -1.63091 -1.04464 2.12306 -0.131222 
0.24415 -1.13295 -1.0193 -1.63825 -0.842 1.07224 1.63225 1.47669 -1.25648 1.77184 0.033935 -1.07934 -2.17778 -0.613967 -1.23192 -2.6146 -0.14551 -2.30867 -0.342848 -2.07966 0.805684 0.44198 -0.63412 1.17681 2.48476 -1.11791 1.96951 -1.63091 -1.04464 2.12306 -0.131222 
0.24415 -1.13295 -1.0193 -1.63825 -0.842 1.07224 1.63225 1.47669 -1.25648 1.77184 -0.30357 -1.07178 -2.17976 -0.524517 -1.25 -2.6146 -0.14551 -2.30867 -0.342848 -2.07966 0.805684 0.44198 -0.63412 1.17681 2.48476 -1.11791 1.96951 -1.63091 -1.04464 2.12306 -0.131222 
0.24415 -1.13295 -1.0193 -1.63825 -0.842 1.07224 1.63225 1.47669 -1.25648 1.77184 0.033935 -1.07934 -2.17778 -0.613967 -1.23192 -2.61767 -0.144752 -2.19604 -0.325626 -2.00411 0.805684 0.44198 -0.63412 1.17681 2.48476 -1.11791 1.96951 -1.63091 -1.04464 2.12306 -0.131222 
0.24415 -1.13295 -1.0193 -1.63825 -0.842 1.07224 1.63225 1.47669 -1.25648 1.77184 0.033935 -1.07934 -2.17778 -0.613967 -1.23192 -2.61767 -0.144752 -2.19604 -0.325626 -2.00411 0.641513 0.482155 -0.475753 1.02149 2.57692 -1.11791 1.96951 -1.63091 -1.04464 2.12306 -0.131222 
0.24415 -1.13295 -1.0193 -1.63825 -0.842 1.07224 1.63225 1.47669 -1.25648 1.77184 0.033935 -1.07934 -2.17778 -0.613967 -1.23192 -2.61767 -0.144752 -2.19604 -0.325626 -2.00411 0.641513 0.482155 -0.475753 1.02149 2.57692 -0.955693 1.54757 -1.61754 -1.00537 2.03953 -0.180497 
0.0853949 -1.0656 -0.945732 -1.92857 -0.66418 1.07224 1.63225 1.47669 -1.25648 1.77184 0.033935 -1.07934 -2.17778 -0.613967 -1.23192 -2.61767 -0.144752 -2.19604 -0.325626 -2.00411 0.641513 0.482155 -0.475753 1.02149 2.57692 -0.955693 1.54757 -1.61754 -1.00537 2.03953 -0.180497 
0.0853949 -1.0656 -0.945732 -1.92857 -0.66418 1.1967 1.80183 1.54566 -1.42408 1.69388 0.033935 -1.07934 -2.17778 -0.613967 -1.23192 -2.61767 -0.144752 -2.19604 -0.325626 -2.00411 0.641513 0.482155 -0.475753 1.02149 2.57692 -0.955693 1.54757 -1.61754 -1.00537 2.03953 -0.180497 
0.0853949 -1.0656 -0.945732 -1.92857 -0.66418 1.07224 1.63225 1.47669 -1.25648 1.77184 0.0433286 -0.993102 -2.15722 -0.611387 -1.16893 -2.61767 -0.144752 -2.19604 -0.325626 -2.00411 0.641513 0.482155 -0.475753 1.02149 2.57692 -0.955693 1.54757 -1.61754 -1.00537 2.03953 -0.180497 
0.0853949 -1.0656 -0.945732 -1.92857 -0.66418 1.07224 1.63225 1.47669 -1.25648 1.77184 0.033935 -1.07934 -2.17778 -0.613967 -1.23192 -2.50989 -0.122773 -2.17609 -0.289978 -1.84364 0.641513 0.482155 -0.475753 1.02149 2.57692 -0.955693 1.54757 -1.61754 -1.00537 2.03953 -0.180497 
0.0853949 -1.0656 -0.945732 -1.92857 -0.66418 1.07224 1.63225 1.47669 -1.25648 1.77184 0.033935 -1.07934 -2.17778 -0.613967 -1.23192 -2.61767 -0.144752 -2.19604 -0.325626 -2.00411 0.726203 0.695899 -0.538143 1.11698 2.69664 -0.955693 1.54757 -1.61754 -1.00537 2.03953 -0.180497 
0.0853949 -1.0656 -0.945732 -1.92857 -0.66418 1.07224 1.63225 1.47669 -1.25648 1.77184 0.033935 -1.07934 -2.17778 -0.613967 -1.23192 -2.61767 -0.144752 -2.19604 -0.325626 -2.00411 0.726203 0.695899 -0.538143 1.11698 2.69664 -1.02711 1.47767 -1.74275 -0.891604 2.0059 -0.157846 
0.0111941 -1.15199 -0.964209 -2.00146 -0.662797 1.07224 1.63225 1.47669 -1.25648 1.77184 0.033935 -1.07934 -2.17778 -0.613967 -1.23192 -2.61767 -0.144752 -2.19604 -0.325626 -2.00411 0.726203 0.695899 -0.538143 1.11698 2.69664 -1.02711 1.47767 -1.74275 -0.891604 2.0059 -0.157846 
0.0111941 -1.15199 -0.964209 -2.00146 -0.662797 0.792212 1.92106 1.20894 -1.28167 1.78783 0.033935 -1.07934 -2.17778 -0.613967 -1.23192 -2.61767 -0.144752 -2.19604 -0.325626 -2.00411 0.726203 0.695899 -0.538143 1.11698 2.69664 -1.02711 1.47767 -1.74275 -0.891604 2.0059 -0.157846 
0.0111941 -1.15199 -0.964209 -2.00146 -0.662797 1.07224 1.63225 1.47669 -1.25648 1.77184 -0.120499 -0.940157 -2.00905 -0.911132 -1.12878 -2.61767 -0.144752 -2.19604 -0.325626 -2.00411 0.726203 0.695899 -0.538143 1.11698 2.69664 -1.02711 1.47767 -1.74275 -0.891604 2.0059 -0.157846 
0.0111941 -1.15199 -0.964209 -2.00146 -0.662797 1.07224 1.63225 1.47669 -1.25648 1.77184 -0.120499 -0.940157 -2.00905 -0.911132 -1.12878 -2.38812 -0.0774837 -1.93421 -0.537075 -1.82075 0.726203 0.695899 -0.538143 1.11698 2.69664 -1.02711 1.47767 -1.74275 -0.891604 2.0059 -0.157846 
0.0111941 -1.15199 -0.964209 -2.00146 -0.662797 1.07224 1.63225 1.47669 -1.25648 1.77184 -0.120499 -0.940157 -2.00905 -0.911132 -1.12878 -2.38812 -0.0774837 -1.93421 -0.537075 -1.82075 0.75849 0.742851 -0.630099 1.30732 2.77957 -1.02711 1.47767 -1.74275 -0.891604 2.0059 -0.157846 
0.0111941 -1.15199 -0.964209 -2.00146 -0.662797 1.07224 1.63225 1.47669 -1.25648 1.77184 -0.120499 -0.940157 -2.00905 -0.911132 -1.12878 -2.38812 -0.0774837 -1.93421 -0.537075 -1.82075 0.75849 0.742851 -0.630099 1.30732 2.77957 -1.01072 1.58879 -1.98123 -0.92085 2.04253 -0.0832551 
-0.32556 -1.03118 -0.894696 -2.11057 -0.475407 1.07224 1.63225 1.47669 -1.25648 1.77184 -0.120499 -0.940157 -2.00905 -0.911132 -1.12878 -2.38812 -0.0774837 -1.93421 -0.537075 -1.82075 0.75849 0.742851 -0.630099 1.30732 2.77957 -1.01072 1.58879 -1.98123 -0.92085 2.04253 -0.0832551 
-0.32556 -1.03118 -0.894696 -2.11057 -0.475407 0.855201 1.45427 1.13988 -1.16277 1.41666 -0.120499 -0.940157 -2.00905 -0.911132 -1.12878 -2.38812 -0.0774837 -1.93421 -0.537075 -1.82075 0.75849 0.742851 -0.630099 1.30732 2.77957 -1.01072 1.58879 -1.98123 -0.92085 2.04253 -0.0832551 
-0.32556 -1.03118 -0.894696 -2.11057 -0.475407 0.855201 1.45427 1.13988 -1.16277 1.41666 0.0697813 -1.18036 -1.97678 -0.889163 -1.17314 -2.38812 -0.0774837 -1.93421 -0.537075 -1.82075 0.75849 0.742851 -0.630099 1.30732 2.77957 -1.01072 1.58879 -1.98123 -0.92085 2.04253 -0.0832551 
-0.32556 -1.03118 -0.894696 -2.11057 -0.475407 0.855201 1.45427 1.13988 -1.16277 1.41666 0.0697813 -1.18036 -1.97678 -0.889163 -1.17314 -2.53978 -0.206792 -2.0635 -0.542661 -1.82068 0.75849 0.742851 -0.630099 1.30732 2.77957 -1.01072 1.58879 -1.98123 -0.92085 2.04253 -0.0832551 
-0.32556 -1.03118 -0.894696 -2.11057 -0.475407 0.855201 1.45427 1.13988 -1.16277 1.41666 0.0697813 -1.18036 -1.97678 -0.889163 -1.17314 -2.53978 -0.206792 -2.0635 -0.542661 -1.82068 0.716843 0.702593 -0.606534 1.30892 2.78587 -1.01072 1.58879 -1.98123 -0.92085 2.04253 -0.0832551 
-0.32556 -1.03118 -0.894696 -2.11057 -0.475407 0.855201 1.45427 1.13988 -1.16277 1.41666 0.0697813 -1.18036 -1.97678 -0.889163 -1.17314 -2.53978 -0.206792 -2.0635 -0.542661 -1.82068 0.716843 0.702593 -0.606534 1.30892 2.78587 -0.932906 1.81076 -1.9795 -0.834833 2.15622 -0.075952 
-0.34261 -1.03231 -0.973943 -2.15425 -0.355386 0.855201 1.45427 1.13988 -1.16277 1.41666 0.0697813 -1.18036 -1.97678 -0.889163 -1.17314 -2.53978 -0.206792 -2.0635 -0.542661 -1.82068 0.716843 0.702593 -0.606534 1.30892 2.78587 -1.01072 1.58879 -1.98123 -0.92085 2.04253 -0.0832551 
-0.34261 -1.03231 -0.973943 -2.15425 -0.355386 0.910904 1.44493 1.05919 -0.968943 1.38857 0.0697813 -1.18036 -1.97678 -0.889163 -1.17314 -2.53978 -0.206792 -2.0635 -0.542661 -1.82068 0.716843 0.702593 -0.606534 1.30892 2.78587 -1.01072 1.58879 -1.98123 -0.92085 2.04253 -0.0832551 
-0.34261 -1.03231 -0.973943 -2.15425 -0.355386 0.910904 1.44493 1.05919 -0.968943 1.38857 0.0143326 -1.16573 -1.99645 -0.875765 -1.20694 -2.53978 -0.206792 -2.0635 -0.542661 -1.82068 0.716843 0.702593 -0.606534 1.30892 2.78587 -1.01072 1.58879 -1.98123 -0.92085 2.04253 -0.0832551 
-0.34261 -1.03231 -0.973943 -2.15425 -0.355386 0.910904 1.44493 1.05919 -0.968943 1.38857 0.0143326 -1.16573 -1.99645 -0.875765 -1.20694 -2.24009 -0.337262 -1.8881 -0.412544 -1.60646 0.716843 0.702593 -0.606534 1.30892 2.78587 -1.01072 1.58879 -1.98123 -0.92085 2.04253 -0.0832551 
-0.34261 -1.03231 -0.973943 -2.15425 -0.355386 0.910904 1.44493 1.05919 -0.968943 1.38857 0.0143326 -1.16573 -1.99645 -0.875765 -1.20694 -2.24009 -0.337262 -1.8881 -0.412544 -1.60646 1.04471 0.697089 -0.673051 1.57427 2.82882 -1.01072 1.58879 -1.98123 -0.92085 2.04253 -0.0832551 
-0.34261 -1.03231 -0.973943 -2.15425 -0.355386 0.910904 1.44493 1.05919 -0.968943 1.38857 0.0143326 -1.16573 -1.99645 -0.875765 -1.20694 -2.24009 -0.337262 -1.8881 -0.412544 -1.60646 0.716843 0.702593 -0.606534 1.30892 2.78587 -1.02345 1.38838 -1.77973 -1.14557 2.24608 -0.113364 
-0.1774 -0.968927 -0.997781 -2.47817 -0.348074 0.910904 1.44493 1.05919 -0.968943 1.38857 0.0143326 -1.16573 -1.99645 -0.875765 -1.20694 -2.24009 -0.337262 -1.8881 -0.412544 -1.60646 0.716843 0.702593 -0.606534 1.30892 2.78587 -1.02345 1.38838 -1.77973 -1.14557 2.24608 -0.113364 
-0.1774 -0.968927 -0.997781 -2.47817 -0.348074 0.875592 1.40019 0.966906 -1.05325 1.37225 0.0143326 -1.16573 -1.99645 -0.875765 -1.20694 -2.24009 -0.337262 -1.8881 -0.412544 -1.60646 0.716843 0.702593 -0.606534 1.30892 2.78587 -1.02345 1.38838 -1.77973 -1.14557 2.24608 -0.113364 
-0.1774 -0.968927 -0.997781 -2.47817 -0.348074 0.910904 1.44493 1.05919 -0.968943 1.38857 0.00160292 -1.13192 -1.96854 -0.717031 -1.14493 -2.24009 -0.337262 -1.8881 -0.412544 -1.60646 0.716843 0.702593 -0.606534 1.30892 2.78587 -1.02345 1.38838 -1.77973 -1.14557 2.24608 -0.113364 
-0.1774 -0.968927 -0.997781 -2.47817 -0.348074 0.910904 1.44493 1.05919 -0.968943 1.38857 0.0143326 -1.16573 -1.99645 -0.875765 -1.20694 -2.0174 -0.245715 -1.87841 -0.572478 -1.65019 0.716843 0.702593 -0.606534 1.30892 2.78587 -1.02345 1.38838 -1.77973 -1.14557 2.24608 -0.113364 
-0.1774 -0.968927 -0.997781 -2.47817 -0.348074 0.910904 1.44493 1.05919 -0.968943 1.38857 0.0143326 -1.16573 -1.99645 -0.875765 -1.20694 -2.0174 -0.245715 -1.87841 -0.572478 -1.65019 0.595181 0.790658 -0.750781 1.20548 2.55176 -1.02345 1.38838 -1.77973 -1.14557 2.24608 -0.113364 
-0.1774 -0.968927 -0.997781 -2.47817 -0.348074 0.910904 1.44493 1.05919 -0.968943 1.38857 0.0143326 -1.16573 -1.99645 -0.875765 -1.20694 -2.0174 -0.245715 -1.87841 -0.572478 -1.65019 0.595181 0.790658 -0.750781 1.20548 2.55176 -1.01087 1.32068 -1.88697 -0.957564 2.24435 -0.0317675 
-0.118188 -0.993755 -0.978258 -2.44886 -0.332166 0.910904 1.44493 1.05919 -0.968943 1.38857 0.0143326 -1.16573 -1.99645 -0.875765 -1.20694 -2.0174 -0.245715 -1.87841 -0.572478 -1.65019 0.595181 0.790658 -0.750781 1.20548 2.55176 -1.02345 1.38838 -1.77973 -1.14557 2.24608 -0.113364 
-0.1774 -0.968927 -0.997781 -2.47817 -0.348074 0.94185 1.45901 1.09013 -0.963328 1.4326 0.0143326 -1.16573 -1.99645 -0.875765 -1.20694 -2.0174 -0.245715 -1.87841 -0.572478 -1.65019 0.595181 0.790658 -0.750781 1.20548 2.55176 -1.02345 1.38838 -1.77973 -1.14557 2.24608 -0.113364 
-0.1774 -0.968927 -0.997781 -2.47817 -0.348074 0.94185 1.45901 1.09013 -0.963328 1.4326 -0.184773 -1.03089 -2.06442 -0.861207 -1.37719 -2.0174 -0.245715 -1.87841 -0.572478 -1.65019 0.595181 0.790658 -0.750781 1.20548 2.55176 -1.02345 1.38838 -1.77973 -1.14557 2.24608 -0.113364 
-0.1774 -0.968927 -0.997781 -2.47817 -0.348074 0.94185 1.45901 1.09013 -0.963328 1.4326 0.0143326 -1.16573 -1.99645 -0.875765 -1.20694 -2.2686 -0.212919 -1.92488 -0.432481 -1.76255 0.595181 0.790658 -0.750781 1.20548 2.55176 -1.02345 1.38838 -1.77973 -1.14557 2.24608 -0.113364 
-0.1774 -0.968927 -0.997781 -2.47817 -0.348074 0.94185 1.45901 1.09013 -0.963328 1.4326 0.0143326 -1.16573 -1.99645 -0.875765 -1.20694 -2.0174 -0.245715 -1.87841 -0.572478 -1.65019 0.585491 0.785083 -0.689932 1.18093 2.53406 -1.02345 1.38838 -1.77973 -1.14557 2.24608 -0.113364 
-0.1774 -0.968927 -0.997781 -2.47817 -0.348074 0.94185 1.45901 1.09013 -0.963328 1.4326 0.0143326 -1.16573 -1.99645 -0.875765 -1.20694 -2.0174 -0.245715 -1.87841 -0.572478 -1.65019 0.585491 0.785083 -0.689932 1.18093 2.53406 -0.658349 1.33691 -1.82301 -1.27382 1.9282 -0.102594 
-0.585765 -0.73393 -1.11361 -2.35955 -0.294091 0.94185 1.45901 1.09013 -0.963328 1.4326 0.0143326 -1.16573 -1.99645 -0.875765 -1.20694 -2.0174 -0.245715 -1.87841 -0.572478 -1.65019 0.585491 0.785083 -0.689932 1.18093 2.53406 -1.02345 1.38838 -1.77973 -1.14557 2.24608 -0.113364 
-0.1774 -0.968927 -0.997781 -2.47817 -0.348074 0.859777 1.48571 1.068 -0.944226 1.38984 0.0143326 -1.16573 -1.99645 -0.875765 -1.20694 -2.0174 -0.245715 -1.87841 -0.572478 -1.65019 0.585491 0.785083 -0.689932 1.18093 2.53406 -1.02345 1.38838 -1.77973 -1.14557 2.24608 -0.113364 
-0.1774 -0.968927 -0.997781 -2.47817 -0.348074 0.859777 1.48571 1.068 -0.944226 1.38984 0.169517 -1.20705 -2.05904 -0.832072 -1.30457 -2.0174 -0.245715 -1.87841 -0.572478 -1.65019 0.585491 0.785083 -0.689932 1.18093 2.53406 -1.02345 1.38838 -1.77973 -1.14557 2.24608 -0.113364 
-0.1774 -0.968927 -0.997781 -2.47817 -0.348074 0.859777 1.48571 1.068 -0.944226 1.38984 0.0143326 -1.16573 -1.99645 -0.875765 -1.20694 -1.99473 -0.237783 -1.96365 -0.617137 -1.67047 0.585491 0.785083 -0.689932 1.18093 2.53406 -1.02345 1.38838 -1.77973 -1.14557 2.24608 -0.113364 
-0.1774 -0.968927 -0.997781 -2.47817 -0.348074 0.859777 1.48571 1.068 -0.944226 1.38984 0.0143326 -1.16573 -1.99645 -0.875765 -1.20694 -1.99473 -0.237783 -1.96365 -0.617137 -1.67047 0.511757 0.783409 -0.705969 1.14155 2.30607 -1.02345 1.38838 -1.77973 -1.14557 2.24608 -0.113364 
-0.1774 -0.968927 -0.997781 -2.47817 -0.348074 0.859777 1.48571 1.068 -0.944226 1.38984 0.0143326 -1.16573 -1.99645 -0.875765 -1.20694 -1.99473 -0.237783 -1.96365 -0.617137 -1.67047 0.585491 0.785083 -0.689932 1.18093 2.53406 -1.35083 1.69274 -1.88295 -0.925642 2.43003 0.011987 
-0.114917 -0.980816 -0.957584 -2.47673 -0.359954 0.859777 1.48571 1.068 -0.944226 1.38984 0.0143326 -1.16573 -1.99645 -0.875765 -1.20694 -1.99473 -0.237783 -1.96365 -0.617137 -1.67047 0.585491 0.785083 -0.689932 1.18093 2.53406 -1.35083 1.69274 -1.88295 -0.925642 2.43003 0.011987 
-0.114917 -0.980816 -0.957584 -2.47673 -0.359954 0.79291 1.55822 1.10495 -0.977706 1.35441 0.0143326 -1.16573 -1.99645 -0.875765 -1.20694 -1.99473 -0.237783 -1.96365 -0.617137 -1.67047 0.585491 0.785083 -0.689932 1.18093 2.53406 -1.35083 1.69274 -1.88295 -0.925642 2.43003 0.011987 
-0.114917 -0.980816 -0.957584 -2.47673 -0.359954 0.79291 1.55822 1.10495 -0.977706 1.35441 0.197616 -1.28041 -1.82338 -0.711985 -1.28628 -1.99473 -0.237783 -1.96365 -0.617137 -1.67047 0.585491 0.785083 -0.689932 1.18093 2.53406 -1.35083 1.69274 -1.88295 -0.925642 2.43003 0.011987 
-0.114917 -0.980816 -0.957584 -2.47673 -0.359954 0.79291 1.55822 1.10495 -0.977706 1.35441 0.197616 -1.28041 -1.82338 -0.711985 -1.28628 -2.11857 -0.438915 -1.90674 -0.634618 -1.45124 0.585491 0.785083 -0.689932 1.18093 2.53406 -1.35083 1.69274 -1.88295 -0.925642 2.43003 0.011987 
-0.114917 -0.980816 -0.957584 -2.47673 -0.359954 0.79291 1.55822 1.10495 -0.977706 1.35441 0.197616 -1.28041 -1.82338 -0.711985 -1.28628 -2.11857 -0.438915 -1.90674 -0.634618 -1.45124 0.391609 1.18622 -1.06101 0.986274 2.80064 -1.35083 1.69274 -1.88295 -0.925642 2.43003 0.011987 
-0.114917 -0.980816 -0.957584 -2.47673 -0.359954 0.79291 1.55822 1.10495 -0.977706 1.35441 0.197616 -1.28041 -1.82338 -0.711985 -1.28628 -2.11857 -0.438915 -1.90674 -0.634618 -1.45124 0.585491 0.785083 -0.689932 1.18093 2.53406 -1.41771 1.71023 -1.88264 -0.945693 2.43341 0.0793259 
0.0429357 -1.08513 -1.08407 -2.33597 -0.487285 0.79291 1.55822 1.10495 -0.977706 1.35441 0.197616 -1.28041 -1.82338 -0.711985 -1.28628 -2.11857 -0.438915 -1.90674 -0.634618 -1.45124 0.585491 0.785083 -0.689932 1.18093 2.53406 -1.35083 1.69274 -1.88295 -0.925642 2.43003 0.011987 
0.0429357 -1.08513 -1.08407 -2.33597 -0.487285 0.539553 1.64962 1.09916 -0.862503 1.21684 0.197616 -1.28041 -1.82338 -0.711985 -1.28628 -2.11857 -0.438915 -1.90674 -0.634618 -1.45124 0.585491 0.785083 -0.689932 1.18093 2.53406 -1.35083 1.69274 -1.88295 -0.925642 2.43003 0.011987 
0.0429357 -1.08513 -1.08407 -2.33597 -0.487285 0.539553 1.64962 1.09916 -0.862503 1.21684 0.194877 -1.28523 -2.05669 -0.516266 -1.27714 -2.11857 -0.438915 -1.90674 -0.634618 -1.45124 0.585491 0.785083 -0.689932 1.18093 2.53406 -1.35083 1.69274 -1.88295 -0.925642 2.43003 0.011987 
0.0429357 -1.08513 -1.08407 -2.33597 -0.487285 0.539553 1.64962 1.09916 -0.862503 1.21684 0.194877 -1.28523 -2.05669 -0.516266 -1.27714 -2.07059 -0.378013 -1.78961 -0.482632 -1.33356 0.585491 0.785083 -0.689932 1.18093 2.53406 -1.35083 1.69274 -1.88295 -0.925642 2.43003 0.011987 
0.0429357 -1.08513 -1.08407 -2.33597 -0.487285 0.539553 1.64962 1.09916 -0.862503 1.21684 0.194877 -1.28523 -2.05669 -0.516266 -1.27714 -2.07059 -0.378013 -1.78961 -0.482632 -1.33356 0.586539 0.710799 -0.722143 1.22249 2.484 -1.35083 1.69274 -1.88295 -0.925642 2.43003 0.011987 
0.0429357 -1.08513 -1.08407 -2.33597 -0.487285 0.539553 1.64962 1.09916 -0.862503 1.21684 0.194877 -1.28523 -2.05669 -0.516266 -1.27714 -2.07059 -0.378013 -1.78961 -0.482632 -1.33356 0.586539 0.710799 -0.722143 1.22249 2.484 -1.38892 1.78842 -1.86505 -0.887353 2.52093 0.0410676 
0.230067 -1.2179 -1.32218 -2.71268 -0.586254 0.539553 1.64962 1.09916 -0.862503 1.21684 0.194877 -1.28523 -2.05669 -0.516266 -1.27714 -2.07059 -0.378013 -1.78961 -0.482632 -1.33356 0.586539 0.710799 -0.722143 1.22249 2.484 -1.35083 1.69274 -1.88295 -0.925642 2.43003 0.011987 
0.230067 -1.2179 -1.32218 -2.71268 -0.586254 0.451586 1.69438 0.977278 -0.771538 1.26298 0.194877 -1.28523 -2.05669 -0.516266 -1.27714 -2.07059 -0.378013 -1.78961 -0.482632 -1.33356 0.586539 0.710799 -0.722143 1.22249 2.484 -1.35083 1.69274 -1.88295 -0.925642 2.43003 0.011987 
0.230067 -1.2179 -1.32218 -2.71268 -0.586254 0.451586 1.69438 0.977278 -0.771538 1.26298 0.204834 -1.35731 -2.00282 -0.376825 -1.23688 -2.07059 -0.378013 -1.78961 -0.482632 -1.33356 0.586539 0.710799 -0.722143 1.22249 2.484 -1.35083 1.69274 -1.88295 -0.925642 2.43003 0.011987 
0.230067 -1.2179 -1.32218 -2.71268 -0.586254 0.451586 1.69438 0.977278 -0.771538 1.26298 0.204834 -1.35731 -2.00282 -0.376825 -1.23688 -2.07074 -0.317389 -1.93884 -0.510363 -1.25454 0.586539 0.710799 -0.722143 1.22249 2.484 -1.35083 1.69274 -1.88295 -0.925642 2.43003 0.011987 
0.230067 -1.2179 -1.32218 -2.71268 -0.586254 0.451586 1.69438 0.977278 -0.771538 1.26298 0.204834 -1.35731 -2.00282 -0.376825 -1.23688 -2.07074 -0.317389 -1.93884 -0.510363 -1.25454 0.77418 0.786786 -0.917108 1.05997 2.52532 -1.35083 1.69274 -1.88295 -0.925642 2.43003 0.011987 
0.230067 -1.2179 -1.32218 -2.71268 -0.586254 0.451586 1.69438 0.977278 -0.771538 1.26298 0.204834 -1.35731 -2.00282 -0.376825 -1.23688 -2.07074 -0.317389 -1.93884 -0.510363 -1.25454 0.586539 0.710799 -0.722143 1.22249 2.484 -1.45207 1.7731 -1.88384 -1.1218 2.51374 0.053683 
-0.254114 -1.02487 -0.967085 -2.40938 -0.292351 0.451586 1.69438 0.977278 -0.771538 1.26298 0.204834 -1.35731 -2.00282 -0.376825 -1.23688 -2.07074 -0.317389 -1.93884 -0.510363 -1.25454 0.586539 0.710799 -0.722143 1.22249 2.484 -1.45207 1.7731 -1.88384 -1.1218 2.51374 0.053683 
-0.254114 -1.02487 -0.967085 -2.40938 -0.292351 0.382353 1.63625 0.970603 -0.743732 1.12455 0.204834 -1.35731 -2.00282 -0.376825 -1.23688 -2.07074 -0.317389 -1.93884 -0.510363 -1.25454 0.586539 0.710799 -0.722143 1.22249 2.484 -1.45207 1.7731 -1.88384 -1.1218 2.51374 0.053683 
-0.254114 -1.02487 -0.967085 -2.40938 -0.292351 0.451586 1.69438 0.977278 -0.771538 1.26298 0.10286 -1.2718 -1.98669 -0.261051 -1.12585 -2.07074 -0.317389 -1.93884 -0.510363 -1.25454 0.586539 0.710799 -0.722143 1.22249 2.484 -1.45207 1.7731 -1.88384 -1.1218 2.51374 0.053683 
-0.254114 -1.02487 -0.967085 -2.40938 -0.292351 0.451586 1.69438 0.977278 -0.771538 1.26298 0.204834 -1.35731 -2.00282 -0.376825 -1.23688 -2.48409 -0.307495 -2.20431 -0.737826 -1.54895 0.586539 0.710799 -0.722143 1.22249 2.484 -1.45207 1.7731 -1.88384 -1.1218 2.51374 0.053683 
-0.254114 -1.02487 -0.967085 -2.40938 -0.292351 0.451586 1.69438 0.977278 -0.771538 1.26298 0.204834 -1.35731 -2.00282 -0.376825 -1.23688 -2.07074 -0.317389 -1.93884 -0.510363 -1.25454 0.6209 0.706552 -0.813678 1.14556 2.45913 -1.45207 1.7731 -1.88384 -1.1218 2.51374 0.053683 
-0.254114 -1.02487 -0.967085 -2.40938 -0.292351 0.451586 1.69438 0.977278 -0.771538 1.26298 0.204834 -1.35731 -2.00282 -0.376825 -1.23688 -2.07074 -0.317389 -1.93884 -0.510363 -1.25454 0.586539 0.710799 -0.722143 1.22249 2.484 -1.46566 1.79205 -1.87895 -1.10514 2.52963 0.0492999 
-0.0111359 -1.18318 -0.759055 -2.58668 -0.190284 0.451586 1.69438 0.977278 -0.771538 1.26298 0.204834 -1.35731 -2.00282 -0.376825 -1.23688 -2.07074 -0.317389 -1.93884 -0.510363 -1.25454 0.586539 0.710799 -0.722143 1.22249 2.484 -1.46566 1.79205 -1.87895 -1.10514 2.52963 0.0492999 
-0.0111359 -1.18318 -0.759055 -2.58668 -0.190284 0.433263 1.54977 1.05752 -0.630641 1.42032 0.204834 -1.35731 -2.00282 -0.376825 -1.23688 -2.07074 -0.317389 -1.93884 -0.510363 -1.25454 0.586539 0.710799 -0.722143 1.22249 2.484 -1.46566 1.79205 -1.87895 -1.10514 2.52963 0.0492999 
-0.0111359 -1.18318 -0.759055 -2.58668 -0.190284 0.451586 1.69438 0.977278 -0.771538 1.26298 0.327789 -1.39257 -1.9128 -0.469253 -1.13165 -2.07074 -0.317389 -1.93884 -0.510363 -1.25454 0.586539 0.710799 -0.722143 1.22249 2.484 -1.46566 1.79205 -1.87895 -1.10514 2.52963 0.0492999 
-0.0111359 -1.18318 -0.759055 -2.58668 -0.190284 0.451586 1.69438 0.977278 -0.771538 1.26298 0.204834 -1.35731 -2.00282 -0.376825 -1.23688 -2.09678 -0.212275 -2.09101 -0.419058 -1.21423 0.586539 0.710799 -0.722143 1.22249 2.484 -1.46566 1.79205 -1.87895 -1.10514 2.52963 0.0492999 
-0.0111359 -1.18318 -0.759055 -2.58668 -0.190284 0.451586 1.69438 0.977278 -0.771538 1.26298 0.204834 -1.35731 -2.00282 -0.376825 -1.23688 -2.07074 -0.317389 -1.93884 -0.510363 -1.25454 0.547787 0.640098 -0.614747 1.27241 2.40475 -1.46566 1.79205 -1.87895 -1.10514 2.52963 0.0492999 
-0.0111359 -1.18318 -0.759055 -2.58668 -0.190284 0.451586 1.69438 0.977278 -0.771538 1.26298 0.204834 -1.35731 -2.00282 -0.376825 -1.23688 -2.07074 -0.317389 -1.93884 -0.510363 -1.25454 0.586539 0.710799 -0.722143 1.22249 2.484 -1.45498 1.74969 -1.87346 -1.10065 2.4998 0.0337008 
-0.0111083 -1.18488 -0.791111 -2.64754 -0.146372 0.451586 1.69438 0.977278 -0.771538 1.26298 0.204834 -1.35731 -2.00282 -0.376825 -1.23688 -2.07074 -0.317389 -1.93884 -0.510363 -1.25454 0.586539 0.710799 -0.722143 1.22249 2.484 -1.45498 1.74969 -1.87346 -1.10065 2.4998 0.0337008 
-0.0111359 -1.18318 -0.759055 -2.58668 -0.190284 0.396011 1.79693 1.15993 -0.738342 1.27786 0.204834 -1.35731 -2.00282 -0.376825 -1.23688 -2.07074 -0.317389 -1.93884 -0.510363 -1.25454 0.586539 0.710799 -0.722143 1.22249 2.484 -1.45498 1.74969 -1.87346 -1.10065 2.4998 0.0337008 
-0.0111359 -1.18318 -0.759055 -2.58668 -0.190284 0.451586 1.69438 0.977278 -0.771538 1.26298 0.381653 -1.48692 -2.24366 -0.350724 -1.37905 -2.07074 -0.317389 -1.93884 -0.510363 -1.25454 0.586539 0.710799 -0.722143 1.22249 2.484 -1.45498 1.74969 -1.87346 -1.10065 2.4998 0.0337008 
-0.0111359 -1.18318 -0.759055 -2.58668 -0.190284 0.451586 1.69438 0.977278 -0.771538 1.26298 0.204834 -1.35731 -2.00282 -0.376825 -1.23688 -2.05139 -0.292408 -1.89621 -0.45109 -1.17731 0.586539 0.710799 -0.722143 1.22249 2.484 -1.45498 1.74969 -1.87346 -1.10065 2.4998 0.0337008 
-0.0111359 -1.18318 -0.759055 -2.58668 -0.190284 0.451586 1.69438 0.977278 -0.771538 1.26298 0.204834 -1.35731 -2.00282 -0.376825 -1.23688 -2.05139 -0.292408 -1.89621 -0.45109 -1.17731 0.566539 0.51056 -0.924741 1.15433 2.29205 -1.45498 1.74969 -1.87346 -1.10065 2.4998 0.0337008 
-0.0111359 -1.18318 -0.759055 -2.58668 -0.190284 0.451586 1.69438 0.977278 -0.771538 1.26298 0.204834 -1.35731 -2.00282 -0.376825 -1.23688 -2.05139 -0.292408 -1.89621 -0.45109 -1.17731 0.586539 0.710799 -0.722143 1.22249 2.484 -1.24184 1.54537 -1.71109 -1.19261 2.24011 0.0673991 
0.0389197 -0.8996 -0.948981 -2.37806 0.0666366 0.451586 1.69438 0.977278 -0.771538 1.26298 0.204834 -1.35731 -2.00282 -0.376825 -1.23688 -2.05139 -0.292408 -1.89621 -0.45109 -1.17731 0.586539 0.710799 -0.722143 1.22249 2.484 -1.45498 1.74969 -1.87346 -1.10065 2.4998 0.0337008 
-0.0111359 -1.18318 -0.759055 -2.58668 -0.190284 0.386429 1.83548 0.946759 -0.746224 1.20626 0.204834 -1.35731 -2.00282 -0.376825 -1.23688 -2.05139 -0.292408 -1.89621 -0.45109 -1.17731 0.586539 0.710799 -0.722143 1.22249 2.484 -1.45498 1.74969 -1.87346 -1.10065 2.4998 0.0337008 
-0.0111359 -1.18318 -0.759055 -2.58668 -0.190284 0.451586 1.69438 0.977278 -0.771538 1.26298 0.14744 -1.53641 -2.10856 -0.508983 -1.4229 -2.05139 -0.292408 -1.89621 -0.45109 -1.17731 0.586539 0.710799 -0.722143 1.22249 2.484 -1.45498 1.74969 -1.87346 -1.10065 2.4998 0.0337008 
-0.0111359 -1.18318 -0.759055 -2.58668 -0.190284 0.451586 1.69438 0.977278 -0.771538 1.26298 0.204834 -1.35731 -2.00282 -0.376825 -1.23688 -1.80678 -0.397019 -2.05773 -0.282588 -1.17043 0.586539 0.710799 -0.722143 1.22249 2.484 -1.45498 1.74969 -1.87346 -1.10065 2.4998 0.0337008 
-0.0111359 -1.18318 -0.759055 -2.58668 -0.190284 0.451586 1.69438 0.977278 -0.771538 1.26298 0.204834 -1.35731 -2.00282 -0.376825 -1.23688 -1.80678 -0.397019 -2.05773 -0.282588 -1.17043 0.722564 0.29533 -0.520935 1.49056 2.53806 -1.45498 1.74969 -1.87346 -1.10065 2.4998 0.0337008 
-0.0111359 -1.18318 -0.759055 -2.58668 -0.190284 0.451586 1.69438 0.977278 -0.771538 1.26298 0.204834 -1.35731 -2.00282 -0.376825 -1.23688 -1.80678 -0.397019 -2.05773 -0.282588 -1.17043 0.722564 0.29533 -0.520935 1.49056 2.53806 -1.24184 1.54537 -1.71109 -1.19261 2.24011 0.0673991 
0.0353625 -0.934982 -0.694094 -2.78245 -0.0640159 0.451586 1.69438 0.977278 -0.771538 1.26298 0.204834 -1.35731 -2.00282 -0.376825 -1.23688 -1.80678 -0.397019 -2.05773 -0.282588 -1.17043 0.722564 0.29533 -0.520935 1.49056 2.53806 -1.45498 1.74969 -1.87346 -1.10065 2.4998 0.0337008 
0.0353625 -0.934982 -0.694094 -2.78245 -0.0640159 0.430429 1.71717 0.859192 -0.753056 1.17626 0.204834 -1.35731 -2.00282 -0.376825 -1.23688 -1.80678 -0.397019 -2.05773 -0.282588 -1.17043 0.722564 0.29533 -0.520935 1.49056 2.53806 -1.45498 1.74969 -1.87346 -1.10065 2.4998 0.0337008 
0.0353625 -0.934982 -0.694094 -2.78245 -0.0640159 0.451586 1.69438 0.977278 -0.771538 1.26298 -0.0706195 -0.978225 -2.04673 -0.78895 -1.36128 -1.80678 -0.397019 -2.05773 -0.282588 -1.17043 0.722564 0.29533 -0.520935 1.49056 2.53806 -1.45498 1.74969 -1.87346 -1.10065 2.4998 0.0337008 
0.0353625 -0.934982 -0.694094 -2.78245 -0.0640159 0.451586 1.69438 0.977278 -0.771538 1.26298 0.204834 -1.35731 -2.00282 -0.376825 -1.23688 -2.23721 -0.586821 -2.26909 -0.0481507 -1.30925 0.722564 0.29533 -0.520935 1.49056 2.53806 -1.45498 1.74969 -1.87346 -1.10065 2.4998 0.0337008 
0.0353625 -0.934982 -0.694094 -2.78245 -0.0640159 0.451586 1.69438 0.977278 -0.771538 1.26298 0.204834 -1.35731 -2.00282 -0.376825 -1.23688 -1.80678 -0.397019 -2.05773 -0.282588 -1.17043 0.656565 0.460859 -0.493872 1.38056 2.57726 -1.45498 1.74969 -1.87346 -1.10065 2.4998 0.0337008 
0.0353625 -0.934982 -0.694094 -2.78245 -0.0640159 0.451586 1.69438 0.977278 -0.771538 1.26298 0.204834 -1.35731 -2.00282 -0.376825 -1.23688 -1.80678 -0.397019 -2.05773 -0.282588 -1.17043 0.722564 0.29533 -0.520935 1.49056 2.53806 -1.41161 1.6145 -1.79542 -1.25556 2.4018 0.0475446 
0.0488002 -0.990998 -0.886634 -2.45796 -0.211845 0.451586 1.69438 0.977278 -0.771538 1.26298 0.204834 -1.35731 -2.00282 -0.376825 -1.23688 -1.80678 -0.397019 -2.05773 -0.282588 -1.17043 0.722564 0.29533 -0.520935 1.49056 2.53806 -1.45498 1.74969 -1.87346 -1.10065 2.4998 0.0337008 
0.0488002 -0.990998 -0.886634 -2.45796 -0.211845 0.428126 1.56206 0.791851 -0.84021 1.10708 0.204834 -1.35731 -2.00282 -0.376825 -1.23688 -1.80678 -0.397019 -2.05773 -0.282588 -1.17043 0.722564 0.29533 -0.520935 1.49056 2.53806 -1.45498 1.74969 -1.87346 -1.10065 2.4998 0.0337008 
0.0488002 -0.990998 -0.886634 -2.45796 -0.211845 0.428126 1.56206 0.791851 -0.84021 1.10708 0.230613 -1.36576 -1.9793 -0.398137 -1.19646 -1.80678 -0.397019 -2.05773 -0.282588 -1.17043 0.722564 0.29533 -0.520935 1.49056 2.53806 -1.45498 1.74969 -1.87346 -1.10065 2.4998 0.0337008 
0.0488002 -0.990998 -0.886634 -2.45796 -0.211845 0.428126 1.56206 0.791851 -0.84021 1.10708 0.230613 -1.36576 -1.9793 -0.398137 -1.19646 -1.74899 -0.561934 -2.00183 -0.287192 -1.05741 0.722564 0.29533 -0.520935 1.49056 2.53806 -1.45498 1.74969 -1.87346 -1.10065 2.4998 0.0337008 
0.0488002 -0.990998 -0.886634 -2.45796 -0.211845 0.428126 1.56206 0.791851 -0.84021 1.10708 0.230613 -1.36576 -1.9793 -0.398137 -1.19646 -1.74899 -0.561934 -2.00183 -0.287192 -1.05741 0.738371 0.330818 -0.572494 1.47943 2.53036 -1.45498 1.74969 -1.87346 -1.10065 2.4998 0.0337008 
0.0488002 -0.990998 -0.886634 -2.45796 -0.211845 0.428126 1.56206 0.791851 -0.84021 1.10708 0.230613 -1.36576 -1.9793 -0.398137 -1.19646 -1.74899 -0.561934 -2.00183 -0.287192 -1.05741 0.722564 0.29533 -0.520935 1.49056 2.53806 -1.61521 1.68825 -1.90058 -1.26325 2.59155 0.0129862 
0.263269 -1.11483 -0.933464 -2.43412 -0.0838964 0.428126 1.56206 0.791851 -0.84021 1.10708 0.230613 -1.36576 -1.9793 -0.398137 -1.19646 -1.74899 -0.561934 -2.00183 -0.287192 -1.05741 0.722564 0.29533 -0.520935 1.49056 2.53806 -1.61521 1.68825 -1.90058 -1.26325 2.59155 0.0129862 
0.263269 -1.11483 -0.933464 -2.43412 -0.0838964 0.435581 1.22655 0.623059 -0.751422 0.955767 0.230613 -1.36576 -1.9793 -0.398137 -1.19646 -1.74899 -0.561934 -2.00183 -0.287192 -1.05741 0.722564 0.29533 -0.520935 1.49056 2.53806 -1.61521 1.68825 -1.90058 -1.26325 2.59155 0.0129862 
0.263269 -1.11483 -0.933464 -2.43412 -0.0838964 0.435581 1.22655 0.623059 -0.751422 0.955767 0.217837 -1.38806 -1.97087 -0.425018 -1.19765 -1.74899 -0.561934 -2.00183 -0.287192 -1.05741 0.722564 0.29533 -0.520935 1.49056 2.53806 -1.61521 1.68825 -1.90058 -1.26325 2.59155 0.0129862 
0.263269 -1.11483 -0.933464 -2.43412 -0.0838964 0.435581 1.22655 0.623059 -0.751422 0.955767 0.217837 -1.38806 -1.97087 -0.425018 -1.19765 -1.44004 -0.678277 -2.37395 -0.108983 -0.881982 0.722564 0.29533 -0.520935 1.49056 2.53806 -1.61521 1.68825 -1.90058 -1.26325 2.59155 0.0129862 
0.263269 -1.11483 -0.933464 -2.43412 -0.0838964 0.435581 1.22655 0.623059 -0.751422 0.955767 0.217837 -1.38806 -1.97087 -0.425018 -1.19765 -1.44004 -0.678277 -2.37395 -0.108983 -0.881982 0.774037 0.322595 -0.492814 1.52814 2.59745 -1.61521 1.68825 -1.90058 -1.26325 2.59155 0.0129862 
0.263269 -1.11483 -0.933464 -2.43412 -0.0838964 0.435581 1.22655 0.623059 -0.751422 0.955767 0.217837 -1.38806 -1.97087 -0.425018 -1.19765 -1.44004 -0.678277 -2.37395 -0.108983 -0.881982 0.774037 0.322595 -0.492814 1.52814 2.59745 -1.69094 1.5497 -1.95575 -1.14512 2.30148 -0.0523688 
0.326861 -1.08272 -0.997559 -2.408 -0.1174 0.435581 1.22655 0.623059 -0.751422 0.955767 0.217837 -1.38806 -1.97087 -0.425018 -1.19765 -1.44004 -0.678277 -2.37395 -0.108983 -0.881982 0.774037 0.322595 -0.492814 1.52814 2.59745 -1.69094 1.5497 -1.95575 -1.14512 2.30148 -0.0523688 
0.263269 -1.11483 -0.933464 -2.43412 -0.0838964 0.241339 1.20609 0.409732 -0.535808 0.868318 0.217837 -1.38806 -1.97087 -0.425018 -1.19765 -1.44004 -0.678277 -2.37395 -0.108983 -0.881982 0.774037 0.322595 -0.492814 1.52814 2.59745 -1.69094 1.5497 -1.95575 -1.14512 2.30148 -0.0523688 
0.263269 -1.11483 -0.933464 -2.43412 -0.0838964 0.435581 1.22655 0.623059 -0.751422 0.955767 0.226675 -1.42002 -1.96442 -0.476707 -1.19009 -1.44004 -0.678277 -2.37395 -0.108983 -0.881982 0.774037 0.322595 -0.492814 1.52814 2.59745 -1.69094 1.5497 -1.95575 -1.14512 2.30148 -0.0523688 
0.263269 -1.11483 -0.933464 -2.43412 -0.0838964 0.435581 1.22655 0.623059 -0.751422 0.955767 0.226675 -1.42002 -1.96442 -0.476707 -1.19009 -1.29472 -0.825179 -2.46191 -0.110923 -0.783284 0.774037 0.322595 -0.492814 1.52814 2.59745 -1.69094 1.5497 -1.95575 -1.14512 2.30148 -0.0523688 
0.263269 -1.11483 -0.933464 -2.43412 -0.0838964 0.435581 1.22655 0.623059 -0.751422 0.955767 0.226675 -1.42002 -1.96442 -0.476707 -1.19009 -1.44004 -0.678277 -2.37395 -0.108983 -0.881982 0.670246 0.203428 -0.548417 1.52483 2.30735 -1.69094 1.5497 -1.95575 -1.14512 2.30148 -0.0523688 
0.263269 -1.11483 -0.933464 -2.43412 -0.0838964 0.435581 1.22655 0.623059 -0.751422 0.955767 0.226675 -1.42002 -1.96442 -0.476707 -1.19009 -1.44004 -0.678277 -2.37395 -0.108983 -0.881982 0.774037 0.322595 -0.492814 1.52814 2.59745 -1.78785 1.80201 -1.98018 -1.00458 2.11473 0.010523 
0.0315514 -1.42024 -0.946462 -2.54233 -0.280945 0.435581 1.22655 0.623059 -0.751422 0.955767 0.226675 -1.42002 -1.96442 -0.476707 -1.19009 -1.44004 -0.678277 -2.37395 -0.108983 -0.881982 0.774037 0.322595 -0.492814 1.52814 2.59745 -1.78785 1.80201 -1.98018 -1.00458 2.11473 0.010523 
0.263269 -1.11483 -0.933464 -2.43412 -0.0838964 0.47393 1.35757 0.555785 -0.597312 1.06371 0.226675 -1.42002 -1.96442 -0.476707 -1.19009 -1.44004 -0.678277 -2.37395 -0.108983 -0.881982 0.774037 0.322595 -0.492814 1.52814 2.59745 -1.78785 1.80201 -1.98018 -1.00458 2.11473 0.010523 
0.263269 -1.11483 -0.933464 -2.43412 -0.0838964 0.47393 1.35757 0.555785 -0.597312 1.06371 0.306248 -1.43656 -2.12259 -0.620773 -1.28631 -1.44004 -0.678277 -2.37395 -0.108983 -0.881982 0.774037 0.322595 -0.492814 1.52814 2.59745 -1.78785 1.80201 -1.98018 -1.00458 2.11473 0.010523 
0.263269 -1.11483 -0.933464 -2.43412 -0.0838964 0.47393 1.35757 0.555785 -0.597312 1.06371 0.306248 -1.43656 -2.12259 -0.620773 -1.28631 -1.36478 -0.663839 -2.37281 -0.128337 -0.865825 0.774037 0.322595 -0.492814 1.52814 2.59745 -1.78785 1.80201 -1.98018 -1.00458 2.11473 0.010523 
0.263269 -1.11483 -0.933464 -2.43412 -0.0838964 0.47393 1.35757 0.555785 -0.597312 1.06371 0.306248 -1.43656 -2.12259 -0.620773 -1.28631 -1.36478 -0.663839 -2.37281 -0.128337 -0.865825 0.93323 0.48377 -0.597287 1.68633 2.79603 -1.78785 1.80201 -1.98018 -1.00458 2.11473 0.010523 
0.263269 -1.11483 -0.933464 -2.43412 -0.0838964 0.47393 1.35757 0.555785 -0.597312 1.06371 0.306248 -1.43656 -2.12259 -0.620773 -1.28631 -1.36478 -0.663839 -2.37281 -0.128337 -0.865825 0.93323 0.48377 -0.597287 1.68633 2.79603 -1.59711 1.82452 -1.72561 -1.32485 2.21883 0.169942 
0.286561 -1.0878 -0.942941 -2.45432 -0.10255 0.47393 1.35757 0.555785 -0.597312 1.06371 0.306248 -1.43656 -2.12259 -0.620773 -1.28631 -1.36478 -0.663839 -2.37281 -0.128337 -0.865825 0.93323 0.48377 -0.597287 1.68633 2.79603 -1.78785 1.80201 -1.98018 -1.00458 2.11473 0.010523 
0.286561 -1.0878 -0.942941 -2.45432 -0.10255 0.509663 1.39627 0.552422 -0.756094 0.949485 0.306248 -1.43656 -2.12259 -0.620773 -1.28631 -1.36478 -0.663839 -2.37281 -0.128337 -0.865825 0.93323 0.48377 -0.597287 1.68633 2.79603 -1.78785 1.80201 -1.98018 -1.00458 2.11473 0.010523 
0.286561 -1.0878 -0.942941 -2.45432 -0.10255 0.47393 1.35757 0.555785 -0.597312 1.06371 0.316865 -1.53915 -2.1406 -0.745871 -1.38708 -1.36478 -0.663839 -2.37281 -0.128337 -0.865825 0.93323 0.48377 -0.597287 1.68633 2.79603 -1.78785 1.80201 -1.98018 -1.00458 2.11473 0.010523 
0.286561 -1.0878 -0.942941 -2.45432 -0.10255 0.47393 1.35757 0.555785 -0.597312 1.06371 0.316865 -1.53915 -2.1406 -0.745871 -1.38708 -1.35426 -0.62405 -2.41965 -0.119679 -0.86908 0.93323 0.48377 -0.597287 1.68633 2.79603 -1.78785 1.80201 -1.98018 -1.00458 2.11473 0.010523 
0.286561 -1.0878 -0.942941 -2.45432 -0.10255 0.47393 1.35757 0.555785 -0.597312 1.06371 0.316865 -1.53915 -2.1406 -0.745871 -1.38708 -1.35426 -0.62405 -2.41965 -0.119679 -0.86908 0.863883 0.445984 -0.630847 1.69197 2.81566 -1.78785 1.80201 -1.98018 -1.00458 2.11473 0.010523 
0.286561 -1.0878 -0.942941 -2.45432 -0.10255 0.47393 1.35757 0.555785 -0.597312 1.06371 0.316865 -1.53915 -2.1406 -0.745871 -1.38708 -1.35426 -0.62405 -2.41965 -0.119679 -0.86908 0.93323 0.48377 -0.597287 1.68633 2.79603 -1.65062 1.99851 -1.61303 -0.75721 2.28826 0.369923 
0.326772 -1.10039 -0.974448 -2.47726 -0.0603506 0.47393 1.35757 0.555785 -0.597312 1.06371 0.316865 -1.53915 -2.1406 -0.745871 -1.38708 -1.35426 -0.62405 -2.41965 -0.119679 -0.86908 0.93323 0.48377 -0.597287 1.68633 2.79603 -1.78785 1.80201 -1.98018 -1.00458 2.11473 0.010523 
0.286561 -1.0878 -0.942941 -2.45432 -0.10255 0.451712 1.11157 0.690677 -0.653856 1.01179 0.316865 -1.53915 -2.1406 -0.745871 -1.38708 -1.35426 -0.62405 -2.41965 -0.119679 -0.86908 0.93323 0.48377 -0.597287 1.68633 2.79603 -1.78785 1.80201 -1.98018 -1.00458 2.11473 0.010523 
0.286561 -1.0878 -0.942941 -2.45432 -0.10255 0.451712 1.11157 0.690677 -0.653856 1.01179 0.366508 -1.64103 -1.99921 -0.442039 -1.26115 -1.35426 -0.62405 -2.41965 -0.119679 -0.86908 0.93323 0.48377 -0.597287 1.68633 2.79603 -1.78785 1.80201 -1.98018 -1.00458 2.11473 0.010523 
0.286561 -1.0878 -0.942941 -2.45432 -0.10255 0.451712 1.11157 0.690677 -0.653856 1.01179 0.316865 -1.53915 -2.1406 -0.745871 -1.38708 -1.42547 -0.389759 -2.56197 -0.39188 -0.857611 0.93323 0.48377 -0.597287 1.68633 2.79603 -1.78785 1.80201 -1.98018 -1.00458 2.11473 0.010523 
0.286561 -1.0878 -0.942941 -2.45432 -0.10255 0.451712 1.11157 0.690677 -0.653856 1.01179 0.316865 -1.53915 -2.1406 -0.745871 -1.38708 -1.42547 -0.389759 -2.56197 -0.39188 -0.857611 1.01281 0.683637 -0.464386 1.78812 2.75629 -1.78785 1.80201 -1.98018 -1.00458 2.11473 0.010523 
0.286561 -1.0878 -0.942941 -2.45432 -0.10255 0.451712 1.11157 0.690677 -0.653856 1.01179 0.316865 -1.53915 -2.1406 -0.745871 -1.38708 -1.42547 -0.389759 -2.56197 -0.39188 -0.857611 0.93323 0.48377 -0.597287 1.68633 2.79603 -1.86199 1.85466 -2.19979 -0.853094 2.17941 0.0617901 
0.316266 -1.30634 -0.849091 -2.55243 -0.00252379 0.451712 1.11157 0.690677 -0.653856 1.01179 0.316865 -1.53915 -2.1406 -0.745871 -1.38708 -1.42547 -0.389759 -2.56197 -0.39188 -0.857611 0.93323 0.48377 -0.597287 1.68633 2.79603 -1.78785 1.80201 -1.98018 -1.00458 2.11473 0.010523 
0.286561 -1.0878 -0.942941 -2.45432 -0.10255 0.233926 1.32072 0.693417 -0.534704 0.898575 0.316865 -1.53915 -2.1406 -0.745871 -1.38708 -1.42547 -0.389759 -2.56197 -0.39188 -0.857611 0.93323 0.48377 -0.597287 1.68633 2.79603 -1.78785 1.80201 -1.98018 -1.00458 2.11473 0.010523 
0.286561 -1.0878 -0.942941 -2.45432 -0.10255 0.451712 1.11157 0.690677 -0.653856 1.01179 0.0219014 -1.7596 -2.15902 -0.596484 -1.43455 -1.42547 -0.389759 -2.56197 -0.39188 -0.857611 0.93323 0.48377 -0.597287 1.68633 2.79603 -1.78785 1.80201 -1.98018 -1.00458 2.11473 0.010523 
0.286561 -1.0878 -0.942941 -2.45432 -0.10255 0.451712 1.11157 0.690677 -0.653856 1.01179 0.316865 -1.53915 -2.1406 -0.745871 -1.38708 -1.61292 -0.267879 -2.59293 -0.36423 -0.903241 0.93323 0.48377 -0.597287 1.68633 2.79603 -1.78785 1.80201 -1.98018 -1.00458 2.11473 0.010523 
0.286561 -1.0878 -0.942941 -2.45432 -0.10255 0.451712 1.11157 0.690677 -0.653856 1.01179 0.316865 -1.53915 -2.1406 -0.745871 -1.38708 -1.42547 -0.389759 -2.56197 -0.39188 -0.857611 1.05385 0.174252 -0.564721 1.4928 2.32345 -1.78785 1.80201 -1.98018 -1.00458 2.11473 0.010523 
0.286561 -1.0878 -0.942941 -2.45432 -0.10255 0.451712 1.11157 0.690677 -0.653856 1.01179 0.316865 -1.53915 -2.1406 -0.745871 -1.38708 -1.42547 -0.389759 -2.56197 -0.39188 -0.857611 0.93323 0.48377 -0.597287 1.68633 2.79603 -1.82336 1.68693 -1.85884 -0.936476 2.22602 0.129448 
0.44716 -1.41281 -0.931919 -2.18806 -0.0472452 0.451712 1.11157 0.690677 -0.653856 1.01179 0.316865 -1.53915 -2.1406 -0.745871 -1.38708 -1.42547 -0.389759 -2.56197 -0.39188 -0.857611 0.93323 0.48377 -0.597287 1.68633 2.79603 -1.78785 1.80201 -1.98018 -1.00458 2.11473 0.010523 
0.44716 -1.41281 -0.931919 -2.18806 -0.0472452 0.524594 1.24295 0.791091 -0.72874 1.00902 0.316865 -1.53915 -2.1406 -0.745871 -1.38708 -1.42547 -0.389759 -2.56197 -0.39188 -0.857611 0.93323 0.48377 -0.597287 1.68633 2.79603 -1.78785 1.80201 -1.98018 -1.00458 2.11473 0.010523 
0.44716 -1.41281 -0.931919 -2.18806 -0.0472452 0.451712 1.11157 0.690677 -0.653856 1.01179 0.434724 -1.57543 -2.16988 -0.800051 -1.38526 -1.42547 -0.389759 -2.56197 -0.39188 -0.857611 0.93323 0.48377 -0.597287 1.68633 2.79603 -1.78785 1.80201 -1.98018 -1.00458 2.11473 0.010523 
0.44716 -1.41281 -0.931919 -2.18806 -0.0472452 0.451712 1.11157 0.690677 -0.653856 1.01179 0.434724 -1.57543 -2.16988 -0.800051 -1.38526 -1.34936 -0.431657 -2.50791 -0.440426 -0.793522 0.93323 0.48377 -0.597287 1.68633 2.79603 -1.78785 1.80201 -1.98018 -1.00458 2.11473 0.010523 
0.44716 -1.41281 -0.931919 -2.18806 -0.0472452 0.451712 1.11157 0.690677 -0.653856 1.01179 0.434724 -1.57543 -2.16988 -0.800051 -1.38526 -1.34936 -0.431657 -2.50791 -0.440426 -0.793522 0.958657 0.598875 -0.658354 1.56257 2.79424 -1.78785 1.80201 -1.98018 -1.00458 2.11473 0.010523 
0.44716 -1.41281 -0.931919 -2.18806 -0.0472452 0.451712 1.11157 0.690677 -0.653856 1.01179 0.434724 -1.57543 -2.16988 -0.800051 -1.38526 -1.34936 -0.431657 -2.50791 -0.440426 -0.793522 0.958657 0.598875 -0.658354 1.56257 2.79424 -1.85662 1.80981 -2.10652 -0.950997 2.12949 -0.000793191 
0.383997 -1.44269 -0.717139 -2.28759 0.166577 0.451712 1.11157 0.690677 -0.653856 1.01179 0.434724 -1.57543 -2.16988 -0.800051 -1.38526 -1.34936 -0.431657 -2.50791 -0.440426 -0.793522 0.958657 0.598875 -0.658354 1.56257 2.79424 -1.85662 1.80981 -2.10652 -0.950997 2.12949 -0.000793191 
0.44716 -1.41281 -0.931919 -2.18806 -0.0472452 0.465449 1.09055 0.698228 -0.668973 1.0317 0.434724 -1.57543 -2.16988 -0.800051 -1.38526 -1.34936 -0.431657 -2.50791 -0.440426 -0.793522 0.958657 0.598875 -0.658354 1.56257 2.79424 -1.85662 1.80981 -2.10652 -0.950997 2.12949 -0.000793191 
0.44716 -1.41281 -0.931919 -2.18806 -0.0472452 0.451712 1.11157 0.690677 -0.653856 1.01179 0.598503 -1.74424 -2.35233 -0.952044 -1.49389 -1.34936 -0.431657 -2.50791 -0.440426 -0.793522 0.958657 0.598875 -0.658354 1.56257 2.79424 -1.85662 1.80981 -2.10652 -0.950997 2.12949 -0.000793191 
0.44716 -1.41281 -0.931919 -2.18806 -0.0472452 0.451712 1.11157 0.690677 -0.653856 1.01179 0.434724 -1.57543 -2.16988 -0.800051 -1.38526 -0.968659 -0.355301 -2.57779 -0.554558 -0.668503 0.958657 0.598875 -0.658354 1.56257 2.79424 -1.85662 1.80981 -2.10652 -0.950997 2.12949 -0.000793191 
0.44716 -1.41281 -0.931919 -2.18806 -0.0472452 0.451712 1.11157 0.690677 -0.653856 1.01179 0.434724 -1.57543 -2.16988 -0.800051 -1.38526 -0.968659 -0.355301 -2.57779 -0.554558 -0.668503 0.815761 0.712272 -0.67648 1.38851 2.75107 -1.85662 1.80981 -2.10652 -0.950997 2.12949 -0.000793191 
0.44716 -1.41281 -0.931919 -2.18806 -0.0472452 0.451712 1.11157 0.690677 -0.653856 1.01179 0.434724 -1.57543 -2.16988 -0.800051 -1.38526 -0.968659 -0.355301 -2.57779 -0.554558 -0.668503 0.958657 0.598875 -0.658354 1.56257 2.79424 -2.05387 1.90691 -2.31565 -0.829561 2.30755 -0.115885 
0.44003 -1.47628 -0.97247 -2.15444 0.0322641 0.451712 1.11157 0.690677 -0.653856 1.01179 0.434724 -1.57543 -2.16988 -0.800051 -1.38526 -0.968659 -0.355301 -2.57779 -0.554558 -0.668503 0.958657 0.598875 -0.658354 1.56257 2.79424 -1.85662 1.80981 -2.10652 -0.950997 2.12949 -0.000793191 
0.44003 -1.47628 -0.97247 -2.15444 0.0322641 0.512289 1.12216 0.611763 -0.461826 1.06947 0.434724 -1.57543 -2.16988 -0.800051 -1.38526 -0.968659 -0.355301 -2.57779 -0.554558 -0.668503 0.958657 0.598875 -0.658354 1.56257 2.79424 -1.85662 1.80981 -2.10652 -0.950997 2.12949 -0.000793191 
0.44003 -1.47628 -0.97247 -2.15444 0.0322641 0.512289 1.12216 0.611763 -0.461826 1.06947 0.300218 -1.47801 -2.1821 -0.56275 -1.34605 -0.968659 -0.355301 -2.57779 -0.554558 -0.668503 0.958657 0.598875 -0.658354 1.56257 2.79424 -1.85662 1.80981 -2.10652 -0.950997 2.12949 -0.000793191 
0.44003 -1.47628 -0.97247 -2.15444 0.0322641 0.512289 1.12216 0.611763 -0.461826 1.06947 0.300218 -1.47801 -2.1821 -0.56275 -1.34605 -0.879584 -0.184767 -2.70932 -0.804312 -0.617581 0.958657 0.598875 -0.658354 1.56257 2.79424 -1.85662 1.80981 -2.10652 -0.950997 2.12949 -0.000793191 
0.44003 -1.47628 -0.97247 -2.15444 0.0322641 0.512289 1.12216 0.611763 -0.461826 1.06947 0.300218 -1.47801 -2.1821 -0.56275 -1.34605 -0.879584 -0.184767 -2.70932 -0.804312 -0.617581 0.68206 0.542645 -0.532746 1.32117 2.73451 -1.85662 1.80981 -2.10652 -0.950997 2.12949 -0.000793191 
0.44003 -1.47628 -0.97247 -2.15444 0.0322641 0.512289 1.12216 0.611763 -0.461826 1.06947 0.300218 -1.47801 -2.1821 -0.56275 -1.34605 -0.879584 -0.184767 -2.70932 -0.804312 -0.617581 0.958657 0.598875 -0.658354 1.56257 2.79424 -1.62927 1.85373 -2.06012 -0.943387 2.02088 0.00482718 
0.341834 -1.37444 -1.27645 -2.2216 -0.0708109 0.512289 1.12216 0.611763 -0.461826 1.06947 0.300218 -1.47801 -2.1821 -0.56275 -1.34605 -0.879584 -0.184767 -2.70932 -0.804312 -0.617581 0.958657 0.598875 -0.658354 1.56257 2.79424 -1.85662 1.80981 -2.10652 -0.950997 2.12949 -0.000793191 
0.341834 -1.37444 -1.27645 -2.2216 -0.0708109 0.624683 1.19796 0.58825 -0.512025 1.24709 0.300218 -1.47801 -2.1821 -0.56275 -1.34605 -0.879584 -0.184767 -2.70932 -0.804312 -0.617581 0.958657 0.598875 -0.658354 1.56257 2.79424 -1.85662 1.80981 -2.10652 -0.950997 2.12949 -0.000793191 
0.341834 -1.37444 -1.27645 -2.2216 -0.0708109 0.512289 1.12216 0.611763 -0.461826 1.06947 0.270449 -1.39967 -2.24919 -0.626443 -1.40639 -0.879584 -0.184767 -2.70932 -0.804312 -0.617581 0.958657 0.598875 -0.658354 1.56257 2.79424 -1.85662 1.80981 -2.10652 -0.950997 2.12949 -0.000793191 
0.341834 -1.37444 -1.27645 -2.2216 -0.0708109 0.512289 1.12216 0.611763 -0.461826 1.06947 0.270449 -1.39967 -2.24919 -0.626443 -1.40639 -0.878078 -0.0571699 -2.68384 -0.752812 -0.55419 0.958657 0.598875 -0.658354 1.56257 2.79424 -1.85662 1.80981 -2.10652 -0.950997 2.12949 -0.000793191 
0.341834 -1.37444 -1.27645 -2.2216 -0.0708109 0.512289 1.12216 0.611763 -0.461826 1.06947 0.270449 -1.39967 -2.24919 -0.626443 -1.40639 -0.878078 -0.0571699 -2.68384 -0.752812 -0.55419 0.978062 0.735517 -0.583171 1.42041 2.77026 -1.85662 1.80981 -2.10652 -0.950997 2.12949 -0.000793191 
0.341834 -1.37444 -1.27645 -2.2216 -0.0708109 0.512289 1.12216 0.611763 -0.461826 1.06947 0.270449 -1.39967 -2.24919 -0.626443 -1.40639 -0.878078 -0.0571699 -2.68384 -0.752812 -0.55419 0.978062 0.735517 -0.583171 1.42041 2.77026 -1.82315 1.72582 -1.91193 -0.842066 2.13141 0.129951 
0.273887 -1.42956 -1.27163 -2.20494 -0.0872122 0.512289 1.12216 0.611763 -0.461826 1.06947 0.270449 -1.39967 -2.24919 -0.626443 -1.40639 -0.878078 -0.0571699 -2.68384 -0.752812 -0.55419 0.978062 0.735517 -0.583171 1.42041 2.77026 -1.82315 1.72582 -1.91193 -0.842066 2.13141 0.129951 
0.341834 -1.37444 -1.27645 -2.2216 -0.0708109 0.47393 1.35757 0.555785 -0.597312 1.06371 0.270449 -1.39967 -2.24919 -0.626443 -1.40639 -0.878078 -0.0571699 -2.68384 -0.752812 -0.55419 0.978062 0.735517 -0.583171 1.42041 2.77026 -1.82315 1.72582 -1.91193 -0.842066 2.13141 0.129951 
0.341834 -1.37444 -1.27645 -2.2216 -0.0708109 0.512289 1.12216 0.611763 -0.461826 1.06947 0.259226 -1.36034 -2.22967 -0.658733 -1.38985 -0.878078 -0.0571699 -2.68384 -0.752812 -0.55419 0.978062 0.735517 -0.583171 1.42041 2.77026 -1.82315 1.72582 -1.91193 -0.842066 2.13141 0.129951 
0.341834 -1.37444 -1.27645 -2.2216 -0.0708109 0.512289 1.12216 0.611763 -0.461826 1.06947 0.270449 -1.39967 -2.24919 -0.626443 -1.40639 -1.09421 -0.0280162 -2.73155 -0.718533 -0.528553 0.978062 0.735517 -0.583171 1.42041 2.77026 -1.82315 1.72582 -1.91193 -0.842066 2.13141 0.129951 
0.341834 -1.37444 -1.27645 -2.2216 -0.0708109 0.512289 1.12216 0.611763 -0.461826 1.06947 0.270449 -1.39967 -2.24919 -0.626443 -1.40639 -0.878078 -0.0571699 -2.68384 -0.752812 -0.55419 0.994323 0.728781 -0.518649 1.44301 2.80988 -1.82315 1.72582 -1.91193 -0.842066 2.13141 0.129951 
0.341834 -1.37444 -1.27645 -2.2216 -0.0708109 0.512289 1.12216 0.611763 -0.461826 1.06947 0.270449 -1.39967 -2.24919 -0.626443 -1.40639 -0.878078 -0.0571699 -2.68384 -0.752812 -0.55419 0.994323 0.728781 -0.518649 1.44301 2.80988 -1.8989 1.7753 -1.85626 -0.888517 2.10364 0.118142 
0.365025 -1.38486 -1.40858 -2.26864 0.00630556 0.512289 1.12216 0.611763 -0.461826 1.06947 0.270449 -1.39967 -2.24919 -0.626443 -1.40639 -0.878078 -0.0571699 -2.68384 -0.752812 -0.55419 0.994323 0.728781 -0.518649 1.44301 2.80988 -1.8989 1.7753 -1.85626 -0.888517 2.10364 0.118142 
0.341834 -1.37444 -1.27645 -2.2216 -0.0708109 0.580599 1.27259 0.61833 -0.41243 1.19227 0.270449 -1.39967 -2.24919 -0.626443 -1.40639 -0.878078 -0.0571699 -2.68384 -0.752812 -0.55419 0.994323 0.728781 -0.518649 1.44301 2.80988 -1.8989 1.7753 -1.85626 -0.888517 2.10364 0.118142 
0.341834 -1.37444 -1.27645 -2.2216 -0.0708109 0.580599 1.27259 0.61833 -0.41243 1.19227 0.316885 -1.48825 -2.29326 -0.637811 -1.49467 -0.878078 -0.0571699 -2.68384 -0.752812 -0.55419 0.994323 0.728781 -0.518649 1.44301 2.80988 -1.8989 1.7753 -1.85626 -0.888517 2.10364 0.118142 
0.341834 -1.37444 -1.27645 -2.2216 -0.0708109 0.580599 1.27259 0.61833 -0.41243 1.19227 0.270449 -1.39967 -2.24919 -0.626443 -1.40639 -0.888827 -0.0583743 -2.80568 -0.850946 -0.586269 0.994323 0.728781 -0.518649 1.44301 2.80988 -1.8989 1.7753 -1.85626 -0.888517 2.10364 0.118142 
0.341834 -1.37444 -1.27645 -2.2216 -0.0708109 0.580599 1.27259 0.61833 -0.41243 1.19227 0.270449 -1.39967 -2.24919 -0.626443 -1.40639 -0.878078 -0.0571699 -2.68384 -0.752812 -0.55419 1.0569 0.713043 -0.586139 1.48906 2.75356 -1.8989 1.7753 -1.85626 -0.888517 2.10364 0.118142 
0.341834 -1.37444 -1.27645 -2.2216 -0.0708109 0.580599 1.27259 0.61833 -0.41243 1.19227 0.270449 -1.39967 -2.24919 -0.626443 -1.40639 -0.878078 -0.0571699 -2.68384 -0.752812 -0.55419 1.0569 0.713043 -0.586139 1.48906 2.75356 -1.9497 1.81395 -1.91932 -0.871308 2.11231 0.118718 
0.284146 -1.62975 -1.31213 -2.36576 -0.13542 0.580599 1.27259 0.61833 -0.41243 1.19227 0.270449 -1.39967 -2.24919 -0.626443 -1.40639 -0.878078 -0.0571699 -2.68384 -0.752812 -0.55419 1.0569 0.713043 -0.586139 1.48906 2.75356 -1.8989 1.7753 -1.85626 -0.888517 2.10364 0.118142 
0.341834 -1.37444 -1.27645 -2.2216 -0.0708109 0.556979 1.2984 0.609422 -0.445472 1.18752 0.270449 -1.39967 -2.24919 -0.626443 -1.40639 -0.878078 -0.0571699 -2.68384 -0.752812 -0.55419 1.0569 0.713043 -0.586139 1.48906 2.75356 -1.8989 1.7753 -1.85626 -0.888517 2.10364 0.118142 
0.341834 -1.37444 -1.27645 -2.2216 -0.0708109 0.580599 1.27259 0.61833 -0.41243 1.19227 0.265011 -1.42161 -2.19515 -0.613589 -1.37698 -0.878078 -0.0571699 -2.68384 -0.752812 -0.55419 1.0569 0.713043 -0.586139 1.48906 2.75356 -1.8989 1.7753 -1.85626 -0.888517 2.10364 0.118142 
0.341834 -1.37444 -1.27645 -2.2216 -0.0708109 0.580599 1.27259 0.61833 -0.41243 1.19227 0.270449 -1.39967 -2.24919 -0.626443 -1.40639 -0.840603 0.142834 -2.73895 -0.774187 -0.428823 1.0569 0.713043 -0.586139 1.48906 2.75356 -1.8989 1.7753 -1.85626 -0.888517 2.10364 0.118142 
0.341834 -1.37444 -1.27645 -2.2216 -0.0708109 0.580599 1.27259 0.61833 -0.41243 1.19227 0.270449 -1.39967 -2.24919 -0.626443 -1.40639 -0.878078 -0.0571699 -2.68384 -0.752812 -0.55419 1.00481 0.669208 -0.512753 1.51747 2.77768 -1.8989 1.7753 -1.85626 -0.888517 2.10364 0.118142 
0.341834 -1.37444 -1.27645 -2.2216 -0.0708109 0.580599 1.27259 0.61833 -0.41243 1.19227 0.270449 -1.39967 -2.24919 -0.626443 -1.40639 -0.878078 -0.0571699 -2.68384 -0.752812 -0.55419 1.00481 0.669208 -0.512753 1.51747 2.77768 -1.86737 1.78515 -1.87888 -0.824921 2.12253 0.12986 
0.106833 -1.19406 -1.36687 -1.91279 -0.0710426 0.580599 1.27259 0.61833 -0.41243 1.19227 0.270449 -1.39967 -2.24919 -0.626443 -1.40639 -0.878078 -0.0571699 -2.68384 -0.752812 -0.55419 1.00481 0.669208 -0.512753 1.51747 2.77768 -1.8989 1.7753 -1.85626 -0.888517 2.10364 0.118142 
0.341834 -1.37444 -1.27645 -2.2216 -0.0708109 0.710416 1.18356 0.633468 -0.551569 1.22066 0.270449 -1.39967 -2.24919 -0.626443 -1.40639 -0.878078 -0.0571699 -2.68384 -0.752812 -0.55419 1.00481 0.669208 -0.512753 1.51747 2.77768 -1.8989 1.7753 -1.85626 -0.888517 2.10364 0.118142 
0.341834 -1.37444 -1.27645 -2.2216 -0.0708109 0.580599 1.27259 0.61833 -0.41243 1.19227 0.295247 -1.47613 -2.3171 -0.694182 -1.5026 -0.878078 -0.0571699 -2.68384 -0.752812 -0.55419 1.00481 0.669208 -0.512753 1.51747 2.77768 -1.8989 1.7753 -1.85626 -0.888517 2.10364 0.118142 
0.341834 -1.37444 -1.27645 -2.2216 -0.0708109 0.580599 1.27259 0.61833 -0.41243 1.19227 0.270449 -1.39967 -2.24919 -0.626443 -1.40639 -1.14596 -0.215287 -2.93657 -0.720404 -0.575473 1.00481 0.669208 -0.512753 1.51747 2.77768 -1.8989 1.7753 -1.85626 -0.888517 2.10364 0.118142 
0.341834 -1.37444 -1.27645 -2.2216 -0.0708109 0.580599 1.27259 0.61833 -0.41243 1.19227 0.270449 -1.39967 -2.24919 -0.626443 -1.40639 -0.878078 -0.0571699 -2.68384 -0.752812 -0.55419 0.982658 0.700087 -0.504938 1.55809 2.80571 -1.8989 1.7753 -1.85626 -0.888517 2.10364 0.118142 
0.341834 -1.37444 -1.27645 -2.2216 -0.0708109 0.580599 1.27259 0.61833 -0.41243 1.19227 0.270449 -1.39967 -2.24919 -0.626443 -1.40639 -0.878078 -0.0571699 -2.68384 -0.752812 -0.55419 0.982658 0.700087 -0.504938 1.55809 2.80571 -1.82334 1.8023 -1.69478 -0.918908 2.18609 0.143261 
0.271882 -1.50463 -1.35076 -2.60105 -0.131525 0.580599 1.27259 0.61833 -0.41243 1.19227 0.270449 -1.39967 -2.24919 -0.626443 -1.40639 -0.878078 -0.0571699 -2.68384 -0.752812 -0.55419 0.982658 0.700087 -0.504938 1.55809 2.80571 -1.8989 1.7753 -1.85626 -0.888517 2.10364 0.118142 
0.341834 -1.37444 -1.27645 -2.2216 -0.0708109 0.678621 1.19091 0.632667 -0.564273 1.10289 0.270449 -1.39967 -2.24919 -0.626443 -1.40639 -0.878078 -0.0571699 -2.68384 -0.752812 -0.55419 0.982658 0.700087 -0.504938 1.55809 2.80571 -1.8989 1.7753 -1.85626 -0.888517 2.10364 0.118142 
0.341834 -1.37444 -1.27645 -2.2216 -0.0708109 0.580599 1.27259 0.61833 -0.41243 1.19227 0.308026 -1.42949 -2.26765 -0.619994 -1.38286 -0.878078 -0.0571699 -2.68384 -0.752812 -0.55419 0.982658 0.700087 -0.504938 1.55809 2.80571 -1.8989 1.7753 -1.85626 -0.888517 2.10364 0.118142 
0.341834 -1.37444 -1.27645 -2.2216 -0.0708109 0.580599 1.27259 0.61833 -0.41243 1.19227 0.308026 -1.42949 -2.26765 -0.619994 -1.38286 -0.72598 -0.126044 -2.58924 -0.67932 -0.588862 0.982658 0.700087 -0.504938 1.55809 2.80571 -1.8989 1.7753 -1.85626 -0.888517 2.10364 0.118142 
0.341834 -1.37444 -1.27645 -2.2216 -0.0708109 0.580599 1.27259 0.61833 -0.41243 1.19227 0.308026 -1.42949 -2.26765 -0.619994 -1.38286 -0.72598 -0.126044 -2.58924 -0.67932 -0.588862 1.02887 0.693068 -0.503968 1.59988 2.92463 -1.8989 1.7753 -1.85626 -0.888517 2.10364 0.118142 
0.341834 -1.37444 -1.27645 -2.2216 -0.0708109 0.580599 1.27259 0.61833 -0.41243 1.19227 0.308026 -1.42949 -2.26765 -0.619994 -1.38286 -0.72598 -0.126044 -2.58924 -0.67932 -0.588862 1.02887 0.693068 -0.503968 1.59988 2.92463 -1.87458 1.76669 -1.85497 -0.917636 2.1009 0.0954615 
0.219949 -0.792063 -0.874368 -3.05571 -0.0210961 0.580599 1.27259 0.61833 -0.41243 1.19227 0.308026 -1.42949 -2.26765 -0.619994 -1.38286 -0.72598 -0.126044 -2.58924 -0.67932 -0.588862 1.02887 0.693068 -0.503968 1.59988 2.92463 -1.87458 1.76669 -1.85497 -0.917636 2.1009 0.0954615 
0.219949 -0.792063 -0.874368 -3.05571 -0.0210961 0.368812 1.09598 0.701036 -0.267941 1.24489 0.308026 -1.42949 -2.26765 -0.619994 -1.38286 -0.72598 -0.126044 -2.58924 -0.67932 -0.588862 1.02887 0.693068 -0.503968 1.59988 2.92463 -1.87458 1.76669 -1.85497 -0.917636 2.1009 0.0954615 
0.219949 -0.792063 -0.874368 -3.05571 -0.0210961 0.368812 1.09598 0.701036 -0.267941 1.24489 0.244842 -1.4269 -2.4302 -0.659191 -1.41711 -0.72598 -0.126044 -2.58924 -0.67932 -0.588862 1.02887 0.693068 -0.503968 1.59988 2.92463 -1.87458 1.76669 -1.85497 -0.917636 2.1009 0.0954615 
0.219949 -0.792063 -0.874368 -3.05571 -0.0210961 0.368812 1.09598 0.701036 -0.267941 1.24489 0.244842 -1.4269 -2.4302 -0.659191 -1.41711 -0.797674 -0.187414 -2.41101 -0.746816 -0.556865 1.02887 0.693068 -0.503968 1.59988 2.92463 -1.87458 1.76669 -1.85497 -0.917636 2.1009 0.0954615 
0.219949 -0.792063 -0.874368 -3.05571 -0.0210961 0.368812 1.09598 0.701036 -0.267941 1.24489 0.244842 -1.4269 -2.4302 -0.659191 -1.41711 -0.797674 -0.187414 -2.41101 -0.746816 -0.556865 1.03685 0.687773 -0.502404 1.63508 2.94551 -1.87458 1.76669 -1.85497 -0.917636 2.1009 0.0954615 
0.219949 -0.792063 -0.874368 -3.05571 -0.0210961 0.368812 1.09598 0.701036 -0.267941 1.24489 0.244842 -1.4269 -2.4302 -0.659191 -1.41711 -0.797674 -0.187414 -2.41101 -0.746816 -0.556865 1.03685 0.687773 -0.502404 1.63508 2.94551 -1.88888 1.79384 -1.86191 -0.935714 2.0965 0.100486 
0.300496 -0.703023 -0.92186 -3.39186 -0.117554 0.368812 1.09598 0.701036 -0.267941 1.24489 0.244842 -1.4269 -2.4302 -0.659191 -1.41711 -0.797674 -0.187414 -2.41101 -0.746816 -0.556865 1.03685 0.687773 -0.502404 1.63508 2.94551 -1.88888 1.79384 -1.86191 -0.935714 2.0965 0.100486 
0.300496 -0.703023 -0.92186 -3.39186 -0.117554 0.444226 0.978461 0.636693 -0.342119 1.20254 0.244842 -1.4269 -2.4302 -0.659191 -1.41711 -0.797674 -0.187414 -2.41101 -0.746816 -0.556865 1.03685 0.687773 -0.502404 1.63508 2.94551 -1.88888 1.79384 -1.86191 -0.935714 2.0965 0.100486 
0.300496 -0.703023 -0.92186 -3.39186 -0.117554 0.444226 0.978461 0.636693 -0.342119 1.20254 0.192872 -1.49797 -2.41213 -0.748218 -1.34436 -0.797674 -0.187414 -2.41101 -0.746816 -0.556865 1.03685 0.687773 -0.502404 1.63508 2.94551 -1.88888 1.79384 -1.86191 -0.935714 2.0965 0.100486 
0.300496 -0.703023 -0.92186 -3.39186 -0.117554 0.444226 0.978461 0.636693 -0.342119 1.20254 0.244842 -1.4269 -2.4302 -0.659191 -1.41711 -0.867023 -0.169614 -2.33399 -0.784216 -0.489671 1.03685 0.687773 -0.502404 1.63508 2.94551 -1.88888 1.79384 -1.86191 -0.935714 2.0965 0.100486 
0.300496 -0.703023 -0.92186 -3.39186 -0.117554 0.444226 0.978461 0.636693 -0.342119 1.20254 0.244842 -1.4269 -2.4302 -0.659191 -1.41711 -0.867023 -0.169614 -2.33399 -0.784216 -0.489671 1.11343 0.574362 -0.499315 1.60639 2.86266 -1.88888 1.79384 -1.86191 -0.935714 2.0965 0.100486 
0.300496 -0.703023 -0.92186 -3.39186 -0.117554 0.444226 0.978461 0.636693 -0.342119 1.20254 0.244842 -1.4269 -2.4302 -0.659191 -1.41711 -0.867023 -0.169614 -2.33399 -0.784216 -0.489671 1.03685 0.687773 -0.502404 1.63508 2.94551 -1.8829 1.82039 -1.86444 -0.948399 2.09038 0.0938483 
0.322867 -0.74342 -0.889122 -3.49847 -0.149869 0.444226 0.978461 0.636693 -0.342119 1.20254 0.244842 -1.4269 -2.4302 -0.659191 -1.41711 -0.867023 -0.169614 -2.33399 -0.784216 -0.489671 1.03685 0.687773 -0.502404 1.63508 2.94551 -1.8829 1.82039 -1.86444 -0.948399 2.09038 0.0938483 
0.322867 -0.74342 -0.889122 -3.49847 -0.149869 0.36819 1.0891 0.565985 -0.218043 1.32471 0.244842 -1.4269 -2.4302 -0.659191 -1.41711 -0.867023 -0.169614 -2.33399 -0.784216 -0.489671 1.03685 0.687773 -0.502404 1.63508 2.94551 -1.8829 1.82039 -1.86444 -0.948399 2.09038 0.0938483 
0.322867 -0.74342 -0.889122 -3.49847 -0.149869 0.36819 1.0891 0.565985 -0.218043 1.32471 0.181325 -1.4324 -2.45383 -0.64086 -1.39348 -0.867023 -0.169614 -2.33399 -0.784216 -0.489671 1.03685 0.687773 -0.502404 1.63508 2.94551 -1.8829 1.82039 -1.86444 -0.948399 2.09038 0.0938483 
0.322867 -0.74342 -0.889122 -3.49847 -0.149869 0.36819 1.0891 0.565985 -0.218043 1.32471 0.181325 -1.4324 -2.45383 -0.64086 -1.39348 -0.840603 0.142834 -2.73895 -0.774187 -0.428823 1.03685 0.687773 -0.502404 1.63508 2.94551 -1.8829 1.82039 -1.86444 -0.948399 2.09038 0.0938483 
0.322867 -0.74342 -0.889122 -3.49847 -0.149869 0.36819 1.0891 0.565985 -0.218043 1.32471 0.181325 -1.4324 -2.45383 -0.64086 -1.39348 -0.840603 0.142834 -2.73895 -0.774187 -0.428823 1.05697 0.689306 -0.514752 1.64176 2.92975 -1.8829 1.82039 -1.86444 -0.948399 2.09038 0.0938483 
0.322867 -0.74342 -0.889122 -3.49847 -0.149869 0.36819 1.0891 0.565985 -0.218043 1.32471 0.181325 -1.4324 -2.45383 -0.64086 -1.39348 -0.840603 0.142834 -2.73895 -0.774187 -0.428823 1.05697 0.689306 -0.514752 1.64176 2.92975 -1.91425 1.88106 -1.88769 -0.987816 2.40161 0.152906 
0.12645 -0.329476 -1.14199 -3.24247 0.00402695 0.36819 1.0891 0.565985 -0.218043 1.32471 0.181325 -1.4324 -2.45383 -0.64086 -1.39348 -0.840603 0.142834 -2.73895 -0.774187 -0.428823 1.05697 0.689306 -0.514752 1.64176 2.92975 -1.8829 1.82039 -1.86444 -0.948399 2.09038 0.0938483 
0.12645 -0.329476 -1.14199 -3.24247 0.00402695 0.376686 1.09452 0.571354 -0.250999 1.37397 0.181325 -1.4324 -2.45383 -0.64086 -1.39348 -0.840603 0.142834 -2.73895 -0.774187 -0.428823 1.05697 0.689306 -0.514752 1.64176 2.92975 -1.8829 1.82039 -1.86444 -0.948399 2.09038 0.0938483 
0.12645 -0.329476 -1.14199 -3.24247 0.00402695 0.376686 1.09452 0.571354 -0.250999 1.37397 0.15949 -1.39077 -2.38176 -0.669594 -1.35642 -0.840603 0.142834 -2.73895 -0.774187 -0.428823 1.05697 0.689306 -0.514752 1.64176 2.92975 -1.8829 1.82039 -1.86444 -0.948399 2.09038 0.0938483 
0.12645 -0.329476 -1.14199 -3.24247 0.00402695 0.376686 1.09452 0.571354 -0.250999 1.37397 0.15949 -1.39077 -2.38176 -0.669594 -1.35642 -0.882516 0.0388842 -2.70181 -0.631697 -0.364871 1.05697 0.689306 -0.514752 1.64176 2.92975 -1.8829 1.82039 -1.86444 -0.948399 2.09038 0.0938483 
0.12645 -0.329476 -1.14199 -3.24247 0.00402695 0.376686 1.09452 0.571354 -0.250999 1.37397 0.15949 -1.39077 -2.38176 -0.669594 -1.35642 -0.840603 0.142834 -2.73895 -0.774187 -0.428823 1.04796 0.816331 -0.589834 1.70248 2.87651 -1.8829 1.82039 -1.86444 -0.948399 2.09038 0.0938483 
0.12645 -0.329476 -1.14199 -3.24247 0.00402695 0.376686 1.09452 0.571354 -0.250999 1.37397 0.15949 -1.39077 -2.38176 -0.669594 -1.35642 -0.840603 0.142834 -2.73895 -0.774187 -0.428823 1.05697 0.689306 -0.514752 1.64176 2.92975 -1.82872 1.72861 -1.82835 -0.889608 2.10671 0.139584 
0.171639 -0.305285 -1.03985 -3.0589 0.00289629 0.376686 1.09452 0.571354 -0.250999 1.37397 0.15949 -1.39077 -2.38176 -0.669594 -1.35642 -0.840603 0.142834 -2.73895 -0.774187 -0.428823 1.05697 0.689306 -0.514752 1.64176 2.92975 -1.8829 1.82039 -1.86444 -0.948399 2.09038 0.0938483 
0.12645 -0.329476 -1.14199 -3.24247 0.00402695 0.298592 1.15207 0.575967 -0.304115 1.31959 0.15949 -1.39077 -2.38176 -0.669594 -1.35642 -0.840603 0.142834 -2.73895 -0.774187 -0.428823 1.05697 0.689306 -0.514752 1.64176 2.92975 -1.8829 1.82039 -1.86444 -0.948399 2.09038 0.0938483 
0.12645 -0.329476 -1.14199 -3.24247 0.00402695 0.376686 1.09452 0.571354 -0.250999 1.37397 0.254351 -1.31722 -2.1862 -0.568804 -1.16705 -0.840603 0.142834 -2.73895 -0.774187 -0.428823 1.05697 0.689306 -0.514752 1.64176 2.92975 -1.8829 1.82039 -1.86444 -0.948399 2.09038 0.0938483 
0.12645 -0.329476 -1.14199 -3.24247 0.00402695 0.376686 1.09452 0.571354 -0.250999 1.37397 0.15949 -1.39077 -2.38176 -0.669594 -1.35642 -0.879303 0.361335 -2.75763 -0.772774 -0.459233 1.05697 0.689306 -0.514752 1.64176 2.92975 -1.8829 1.82039 -1.86444 -0.948399 2.09038 0.0938483 
0.12645 -0.329476 -1.14199 -3.24247 0.00402695 0.376686 1.09452 0.571354 -0.250999 1.37397 0.15949 -1.39077 -2.38176 -0.669594 -1.35642 -0.840603 0.142834 -2.73895 -0.774187 -0.428823 1.01521 0.714952 -0.451496 1.66126 2.97754 -1.8829 1.82039 -1.86444 -0.948399 2.09038 0.0938483 
0.12645 -0.329476 -1.14199 -3.24247 0.00402695 0.376686 1.09452 0.571354 -0.250999 1.37397 0.15949 -1.39077 -2.38176 -0.669594 -1.35642 -0.840603 0.142834 -2.73895 -0.774187 -0.428823 1.01521 0.714952 -0.451496 1.66126 2.97754 -1.90079 1.86035 -1.89846 -0.934167 2.08127 0.0916094 
0.135845 -0.365278 -1.11493 -2.99954 0.0213707 0.376686 1.09452 0.571354 -0.250999 1.37397 0.15949 -1.39077 -2.38176 -0.669594 -1.35642 -0.840603 0.142834 -2.73895 -0.774187 -0.428823 1.01521 0.714952 -0.451496 1.66126 2.97754 -1.90079 1.86035 -1.89846 -0.934167 2.08127 0.0916094 
0.135845 -0.365278 -1.11493 -2.99954 0.0213707 0.554094 0.956101 0.451771 -0.0891833 1.33608 0.15949 -1.39077 -2.38176 -0.669594 -1.35642 -0.840603 0.142834 -2.73895 -0.774187 -0.428823 1.01521 0.714952 -0.451496 1.66126 2.97754 -1.90079 1.86035 -1.89846 -0.934167 2.08127 0.0916094 
0.135845 -0.365278 -1.11493 -2.99954 0.0213707 0.554094 0.956101 0.451771 -0.0891833 1.33608 0.195792 -1.24214 -2.19218 -0.62387 -1.25851 -0.840603 0.142834 -2.73895 -0.774187 -0.428823 1.01521 0.714952 -0.451496 1.66126 2.97754 -1.90079 1.86035 -1.89846 -0.934167 2.08127 0.0916094 
0.135845 -0.365278 -1.11493 -2.99954 0.0213707 0.554094 0.956101 0.451771 -0.0891833 1.33608 0.195792 -1.24214 -2.19218 -0.62387 -1.25851 -0.978639 -0.321216 -2.80254 -0.730096 -0.47305 1.01521 0.714952 -0.451496 1.66126 2.97754 -1.90079 1.86035 -1.89846 -0.934167 2.08127 0.0916094 
0.135845 -0.365278 -1.11493 -2.99954 0.0213707 0.554094 0.956101 0.451771 -0.0891833 1.33608 0.195792 -1.24214 -2.19218 -0.62387 -1.25851 -0.978639 -0.321216 -2.80254 -0.730096 -0.47305 1.17789 0.69144 -0.448361 1.80847 3.12349 -1.90079 1.86035 -1.89846 -0.934167 2.08127 0.0916094 
0.135845 -0.365278 -1.11493 -2.99954 0.0213707 0.554094 0.956101 0.451771 -0.0891833 1.33608 0.195792 -1.24214 -2.19218 -0.62387 -1.25851 -0.978639 -0.321216 -2.80254 -0.730096 -0.47305 1.17789 0.69144 -0.448361 1.80847 3.12349 -1.92127 1.86703 -1.91162 -0.959426 2.10988 0.0866284 
0.119092 -0.340453 -1.05139 -3.13823 0.0644545 0.554094 0.956101 0.451771 -0.0891833 1.33608 0.195792 -1.24214 -2.19218 -0.62387 -1.25851 -0.978639 -0.321216 -2.80254 -0.730096 -0.47305 1.17789 0.69144 -0.448361 1.80847 3.12349 -1.92127 1.86703 -1.91162 -0.959426 2.10988 0.0866284 
0.119092 -0.340453 -1.05139 -3.13823 0.0644545 0.475474 0.954139 0.381896 -0.160019 1.27706 0.195792 -1.24214 -2.19218 -0.62387 -1.25851 -0.978639 -0.321216 -2.80254 -0.730096 -0.47305 1.17789 0.69144 -0.448361 1.80847 3.12349 -1.92127 1.86703 -1.91162 -0.959426 2.10988 0.0866284 
0.119092 -0.340453 -1.05139 -3.13823 0.0644545 0.475474 0.954139 0.381896 -0.160019 1.27706 0.217412 -1.00241 -2.00945 -0.716117 -1.07723 -0.978639 -0.321216 -2.80254 -0.730096 -0.47305 1.17789 0.69144 -0.448361 1.80847 3.12349 -1.92127 1.86703 -1.91162 -0.959426 2.10988 0.0866284 
0.119092 -0.340453 -1.05139 -3.13823 0.0644545 0.475474 0.954139 0.381896 -0.160019 1.27706 0.217412 -1.00241 -2.00945 -0.716117 -1.07723 -0.971557 -0.239498 -2.93662 -0.860405 -0.519079 1.17789 0.69144 -0.448361 1.80847 3.12349 -1.92127 1.86703 -1.91162 -0.959426 2.10988 0.0866284 
0.119092 -0.340453 -1.05139 -3.13823 0.0644545 0.475474 0.954139 0.381896 -0.160019 1.27706 0.217412 -1.00241 -2.00945 -0.716117 -1.07723 -0.971557 -0.239498 -2.93662 -0.860405 -0.519079 1.17574 0.703989 -0.471311 1.81164 3.13564 -1.92127 1.86703 -1.91162 -0.959426 2.10988 0.0866284 
0.119092 -0.340453 -1.05139 -3.13823 0.0644545 0.475474 0.954139 0.381896 -0.160019 1.27706 0.217412 -1.00241 -2.00945 -0.716117 -1.07723 -0.971557 -0.239498 -2.93662 -0.860405 -0.519079 1.17574 0.703989 -0.471311 1.81164 3.13564 -1.86117 1.85735 -1.98685 -0.941446 2.17357 0.108288 
0.20007 -0.441422 -1.01411 -3.17609 0.0521434 0.475474 0.954139 0.381896 -0.160019 1.27706 0.217412 -1.00241 -2.00945 -0.716117 -1.07723 -0.971557 -0.239498 -2.93662 -0.860405 -0.519079 1.17574 0.703989 -0.471311 1.81164 3.13564 -1.86117 1.85735 -1.98685 -0.941446 2.17357 0.108288 
0.20007 -0.441422 -1.01411 -3.17609 0.0521434 0.479915 0.985771 0.445442 -0.178834 1.39366 0.217412 -1.00241 -2.00945 -0.716117 -1.07723 -0.971557 -0.239498 -2.93662 -0.860405 -0.519079 1.17574 0.703989 -0.471311 1.81164 3.13564 -1.86117 1.85735 -1.98685 -0.941446 2.17357 0.108288 
0.20007 -0.441422 -1.01411 -3.17609 0.0521434 0.475474 0.954139 0.381896 -0.160019 1.27706 0.235808 -1.05532 -2.09165 -0.726171 -1.05723 -0.971557 -0.239498 -2.93662 -0.860405 -0.519079 1.17574 0.703989 -0.471311 1.81164 3.13564 -1.86117 1.85735 -1.98685 -0.941446 2.17357 0.108288 
0.20007 -0.441422 -1.01411 -3.17609 0.0521434 0.475474 0.954139 0.381896 -0.160019 1.27706 0.235808 -1.05532 -2.09165 -0.726171 -1.05723 -0.824573 -0.153629 -2.67598 -0.86981 -0.372397 1.17574 0.703989 -0.471311 1.81164 3.13564 -1.86117 1.85735 -1.98685 -0.941446 2.17357 0.108288 
0.20007 -0.441422 -1.01411 -3.17609 0.0521434 0.475474 0.954139 0.381896 -0.160019 1.27706 0.235808 -1.05532 -2.09165 -0.726171 -1.05723 -0.824573 -0.153629 -2.67598 -0.86981 -0.372397 1.20404 0.706436 -0.482376 1.85455 3.179 -1.86117 1.85735 -1.98685 -0.941446 2.17357 0.108288 
0.20007 -0.441422 -1.01411 -3.17609 0.0521434 0.475474 0.954139 0.381896 -0.160019 1.27706 0.235808 -1.05532 -2.09165 -0.726171 -1.05723 -0.824573 -0.153629 -2.67598 -0.86981 -0.372397 1.20404 0.706436 -0.482376 1.85455 3.179 -1.90087 1.75422 -1.86617 -0.916874 2.09653 0.11509 
0.0665464 -0.484859 -1.02885 -3.18181 0.178855 0.475474 0.954139 0.381896 -0.160019 1.27706 0.235808 -1.05532 -2.09165 -0.726171 -1.05723 -0.824573 -0.153629 -2.67598 -0.86981 -0.372397 1.20404 0.706436 -0.482376 1.85455 3.179 -1.86117 1.85735 -1.98685 -0.941446 2.17357 0.108288 
0.20007 -0.441422 -1.01411 -3.17609 0.0521434 0.248687 1.15135 0.59985 -0.368045 1.18838 0.235808 -1.05532 -2.09165 -0.726171 -1.05723 -0.824573 -0.153629 -2.67598 -0.86981 -0.372397 1.20404 0.706436 -0.482376 1.85455 3.179 -1.86117 1.85735 -1.98685 -0.941446 2.17357 0.108288 
0.20007 -0.441422 -1.01411 -3.17609 0.0521434 0.475474 0.954139 0.381896 -0.160019 1.27706 0.285983 -0.970819 -2.07556 -0.698708 -1.0817 -0.824573 -0.153629 -2.67598 -0.86981 -0.372397 1.20404 0.706436 -0.482376 1.85455 3.179 -1.86117 1.85735 -1.98685 -0.941446 2.17357 0.108288 
0.20007 -0.441422 -1.01411 -3.17609 0.0521434 0.475474 0.954139 0.381896 -0.160019 1.27706 0.235808 -1.05532 -2.09165 -0.726171 -1.05723 -0.744826 -0.089968 -2.72906 -0.937895 -0.367721 1.20404 0.706436 -0.482376 1.85455 3.179 -1.86117 1.85735 -1.98685 -0.941446 2.17357 0.108288 
0.20007 -0.441422 -1.01411 -3.17609 0.0521434 0.475474 0.954139 0.381896 -0.160019 1.27706 0.235808 -1.05532 -2.09165 -0.726171 -1.05723 -0.744826 -0.089968 -2.72906 -0.937895 -0.367721 0.899101 0.834787 -0.323911 1.81176 3.12679 -1.86117 1.85735 -1.98685 -0.941446 2.17357 0.108288 
0.20007 -0.441422 -1.01411 -3.17609 0.0521434 0.475474 0.954139 0.381896 -0.160019 1.27706 0.235808 -1.05532 -2.09165 -0.726171 -1.05723 -0.744826 -0.089968 -2.72906 -0.937895 -0.367721 0.899101 0.834787 -0.323911 1.81176 3.12679 -1.8989 1.7753 -1.85626 -0.888517 2.10364 0.118142 
0.156327 -0.506193 -0.997918 -3.27983 0.0226815 0.475474 0.954139 0.381896 -0.160019 1.27706 0.235808 -1.05532 -2.09165 -0.726171 -1.05723 -0.744826 -0.089968 -2.72906 -0.937895 -0.367721 0.899101 0.834787 -0.323911 1.81176 3.12679 -1.86117 1.85735 -1.98685 -0.941446 2.17357 0.108288 
0.156327 -0.506193 -0.997918 -3.27983 0.0226815 0.446066 1.02829 0.324701 -0.118817 1.40751 0.235808 -1.05532 -2.09165 -0.726171 -1.05723 -0.744826 -0.089968 -2.72906 -0.937895 -0.367721 0.899101 0.834787 -0.323911 1.81176 3.12679 -1.86117 1.85735 -1.98685 -0.941446 2.17357 0.108288 
0.156327 -0.506193 -0.997918 -3.27983 0.0226815 0.446066 1.02829 0.324701 -0.118817 1.40751 0.303511 -1.02263 -1.87515 -0.681061 -0.869117 -0.744826 -0.089968 -2.72906 -0.937895 -0.367721 0.899101 0.834787 -0.323911 1.81176 3.12679 -1.86117 1.85735 -1.98685 -0.941446 2.17357 0.108288 
0.156327 -0.506193 -0.997918 -3.27983 0.0226815 0.446066 1.02829 0.324701 -0.118817 1.40751 0.235808 -1.05532 -2.09165 -0.726171 -1.05723 -0.798813 -0.0237352 -2.61182 -0.963252 -0.284124 0.899101 0.834787 -0.323911 1.81176 3.12679 -1.86117 1.85735 -1.98685 -0.941446 2.17357 0.108288 
0.156327 -0.506193 -0.997918 -3.27983 0.0226815 0.446066 1.02829 0.324701 -0.118817 1.40751 0.235808 -1.05532 -2.09165 -0.726171 -1.05723 -0.798813 -0.0237352 -2.61182 -0.963252 -0.284124 0.880759 0.850977 -0.328862 1.75291 3.03346 -1.86117 1.85735 -1.98685 -0.941446 2.17357 0.108288 
0.156327 -0.506193 -0.997918 -3.27983 0.0226815 0.446066 1.02829 0.324701 -0.118817 1.40751 0.235808 -1.05532 -2.09165 -0.726171 -1.05723 -0.798813 -0.0237352 -2.61182 -0.963252 -0.284124 0.880759 0.850977 -0.328862 1.75291 3.03346 -1.86117 1.85735 -1.98685 -0.941446 2.17357 0.108288 
0.129713 -0.458299 -0.987513 -3.24647 0.124348 0.446066 1.02829 0.324701 -0.118817 1.40751 0.235808 -1.05532 -2.09165 -0.726171 -1.05723 -0.798813 -0.0237352 -2.61182 -0.963252 -0.284124 0.880759 0.850977 -0.328862 1.75291 3.03346 -1.86117 1.85735 -1.98685 -0.941446 2.17357 0.108288 
0.156327 -0.506193 -0.997918 -3.27983 0.0226815 0.246206 1.08321 0.394635 -0.197361 1.28378 0.235808 -1.05532 -2.09165 -0.726171 -1.05723 -0.798813 -0.0237352 -2.61182 -0.963252 -0.284124 0.880759 0.850977 -0.328862 1.75291 3.03346 -1.86117 1.85735 -1.98685 -0.941446 2.17357 0.108288 
0.156327 -0.506193 -0.997918 -3.27983 0.0226815 0.446066 1.02829 0.324701 -0.118817 1.40751 0.275975 -1.14858 -1.99956 -0.360502 -0.982549 -0.798813 -0.0237352 -2.61182 -0.963252 -0.284124 0.880759 0.850977 -0.328862 1.75291 3.03346 -1.86117 1.85735 -1.98685 -0.941446 2.17357 0.108288 
0.156327 -0.506193 -0.997918 -3.27983 0.0226815 0.446066 1.02829 0.324701 -0.118817 1.40751 0.235808 -1.05532 -2.09165 -0.726171 -1.05723 -0.83189 -0.158553 -2.87518 -1.08972 -0.38392 0.880759 0.850977 -0.328862 1.75291 3.03346 -1.86117 1.85735 -1.98685 -0.941446 2.17357 0.108288 
0.156327 -0.506193 -0.997918 -3.27983 0.0226815 0.446066 1.02829 0.324701 -0.118817 1.40751 0.235808 -1.05532 -2.09165 -0.726171 -1.05723 -0.83189 -0.158553 -2.87518 -1.08972 -0.38392 0.940627 0.898207 -0.319236 1.93142 3.19327 -1.86117 1.85735 -1.98685 -0.941446 2.17357 0.108288 
0.156327 -0.506193 -0.997918 -3.27983 0.0226815 0.446066 1.02829 0.324701 -0.118817 1.40751 0.235808 -1.05532 -2.09165 -0.726171 -1.05723 -0.83189 -0.158553 -2.87518 -1.08972 -0.38392 0.940627 0.898207 -0.319236 1.93142 3.19327 -1.98029 1.89931 -2.07809 -0.901755 2.2668 0.154103 
0.133083 -0.344016 -0.977344 -3.07502 0.00507944 0.446066 1.02829 0.324701 -0.118817 1.40751 0.235808 -1.05532 -2.09165 -0.726171 -1.05723 -0.83189 -0.158553 -2.87518 -1.08972 -0.38392 0.940627 0.898207 -0.319236 1.93142 3.19327 -1.86117 1.85735 -1.98685 -0.941446 2.17357 0.108288 
0.133083 -0.344016 -0.977344 -3.07502 0.00507944 0.474033 0.985827 0.301232 -0.0657291 1.34014 0.235808 -1.05532 -2.09165 -0.726171 -1.05723 -0.83189 -0.158553 -2.87518 -1.08972 -0.38392 0.940627 0.898207 -0.319236 1.93142 3.19327 -1.86117 1.85735 -1.98685 -0.941446 2.17357 0.108288 
0.133083 -0.344016 -0.977344 -3.07502 0.00507944 0.474033 0.985827 0.301232 -0.0657291 1.34014 0.0657565 -1.21699 -2.24056 -0.618473 -1.32954 -0.83189 -0.158553 -2.87518 -1.08972 -0.38392 0.940627 0.898207 -0.319236 1.93142 3.19327 -1.86117 1.85735 -1.98685 -0.941446 2.17357 0.108288 
0.133083 -0.344016 -0.977344 -3.07502 0.00507944 0.474033 0.985827 0.301232 -0.0657291 1.34014 0.235808 -1.05532 -2.09165 -0.726171 -1.05723 -1.04528 -0.232096 -3.17187 -1.23468 -0.573995 0.940627 0.898207 -0.319236 1.93142 3.19327 -1.86117 1.85735 -1.98685 -0.941446 2.17357 0.108288 
0.133083 -0.344016 -0.977344 -3.07502 0.00507944 0.474033 0.985827 0.301232 -0.0657291 1.34014 0.235808 -1.05532 -2.09165 -0.726171 -1.05723 -1.04528 -0.232096 -3.17187 -1.23468 -0.573995 0.892272 0.936524 -0.32262 1.98481 3.14278 -1.86117 1.85735 -1.98685 -0.941446 2.17357 0.108288 
0.133083 -0.344016 -0.977344 -3.07502 0.00507944 0.474033 0.985827 0.301232 -0.0657291 1.34014 0.235808 -1.05532 -2.09165 -0.726171 -1.05723 -1.04528 -0.232096 -3.17187 -1.23468 -0.573995 0.940627 0.898207 -0.319236 1.93142 3.19327 -1.84008 1.83074 -1.98974 -0.944791 2.16692 0.116915 
0.267329 -0.407318 -1.08989 -2.97288 -0.0243678 0.474033 0.985827 0.301232 -0.0657291 1.34014 0.235808 -1.05532 -2.09165 -0.726171 -1.05723 -1.04528 -0.232096 -3.17187 -1.23468 -0.573995 0.940627 0.898207 -0.319236 1.93142 3.19327 -1.84008 1.83074 -1.98974 -0.944791 2.16692 0.116915 
0.267329 -0.407318 -1.08989 -2.97288 -0.0243678 0.447672 0.915101 0.197656 0.0169342 1.33725 0.235808 -1.05532 -2.09165 -0.726171 -1.05723 -1.04528 -0.232096 -3.17187 -1.23468 -0.573995 0.940627 0.898207 -0.319236 1.93142 3.19327 -1.84008 1.83074 -1.98974 -0.944791 2.16692 0.116915 
0.267329 -0.407318 -1.08989 -2.97288 -0.0243678 0.474033 0.985827 0.301232 -0.0657291 1.34014 0.197626 -1.09321 -1.88968 -0.900602 -1.09284 -1.04528 -0.232096 -3.17187 -1.23468 -0.573995 0.940627 0.898207 -0.319236 1.93142 3.19327 -1.84008 1.83074 -1.98974 -0.944791 2.16692 0.116915 
0.267329 -0.407318 -1.08989 -2.97288 -0.0243678 0.474033 0.985827 0.301232 -0.0657291 1.34014 0.197626 -1.09321 -1.88968 -0.900602 -1.09284 -1.05711 -0.423176 -3.05329 -1.26094 -0.749097 0.940627 0.898207 -0.319236 1.93142 3.19327 -1.84008 1.83074 -1.98974 -0.944791 2.16692 0.116915 
0.267329 -0.407318 -1.08989 -2.97288 -0.0243678 0.474033 0.985827 0.301232 -0.0657291 1.34014 0.197626 -1.09321 -1.88968 -0.900602 -1.09284 -1.04528 -0.232096 -3.17187 -1.23468 -0.573995 0.959973 0.906259 -0.329742 1.92609 3.15288 -1.84008 1.83074 -1.98974 -0.944791 2.16692 0.116915 
0.267329 -0.407318 -1.08989 -2.97288 -0.0243678 0.474033 0.985827 0.301232 -0.0657291 1.34014 0.197626 -1.09321 -1.88968 -0.900602 -1.09284 -1.04528 -0.232096 -3.17187 -1.23468 -0.573995 0.940627 0.898207 -0.319236 1.93142 3.19327 -1.84185 1.83238 -1.99468 -0.927824 2.10186 0.0730151 
0.220094 -0.405718 -1.1265 -2.88462 -0.0212169 0.474033 0.985827 0.301232 -0.0657291 1.34014 0.197626 -1.09321 -1.88968 -0.900602 -1.09284 -1.04528 -0.232096 -3.17187 -1.23468 -0.573995 0.940627 0.898207 -0.319236 1.93142 3.19327 -1.84008 1.83074 -1.98974 -0.944791 2.16692 0.116915 
0.267329 -0.407318 -1.08989 -2.97288 -0.0243678 0.509527 0.977755 0.305056 -0.0539605 1.33797 0.197626 -1.09321 -1.88968 -0.900602 -1.09284 -1.04528 -0.232096 -3.17187 -1.23468 -0.573995 0.940627 0.898207 -0.319236 1.93142 3.19327 -1.84008 1.83074 -1.98974 -0.944791 2.16692 0.116915 
0.267329 -0.407318 -1.08989 -2.97288 -0.0243678 0.474033 0.985827 0.301232 -0.0657291 1.34014 0.272789 -1.08612 -1.72618 -0.862965 -0.992645 -1.04528 -0.232096 -3.17187 -1.23468 -0.573995 0.940627 0.898207 -0.319236 1.93142 3.19327 -1.84008 1.83074 -1.98974 -0.944791 2.16692 0.116915 
0.267329 -0.407318 -1.08989 -2.97288 -0.0243678 0.474033 0.985827 0.301232 -0.0657291 1.34014 0.272789 -1.08612 -1.72618 -0.862965 -0.992645 -1.07827 -0.310549 -3.19808 -1.51527 -0.548922 0.940627 0.898207 -0.319236 1.93142 3.19327 -1.84008 1.83074 -1.98974 -0.944791 2.16692 0.116915 
0.267329 -0.407318 -1.08989 -2.97288 -0.0243678 0.474033 0.985827 0.301232 -0.0657291 1.34014 0.272789 -1.08612 -1.72618 -0.862965 -0.992645 -1.07827 -0.310549 -3.19808 -1.51527 -0.548922 0.948637 0.894879 -0.294538 1.90424 3.15388 -1.84008 1.83074 -1.98974 -0.944791 2.16692 0.116915 
0.267329 -0.407318 -1.08989 -2.97288 -0.0243678 0.474033 0.985827 0.301232 -0.0657291 1.34014 0.272789 -1.08612 -1.72618 -0.862965 -0.992645 -1.07827 -0.310549 -3.19808 -1.51527 -0.548922 0.948637 0.894879 -0.294538 1.90424 3.15388 -1.9252 1.65865 -2.23104 -0.857605 2.40675 0.00517743 
0.30799 -0.275319 -1.14168 -2.97895 0.0246967 0.474033 0.985827 0.301232 -0.0657291 1.34014 0.272789 -1.08612 -1.72618 -0.862965 -0.992645 -1.07827 -0.310549 -3.19808 -1.51527 -0.548922 0.948637 0.894879 -0.294538 1.90424 3.15388 -1.9252 1.65865 -2.23104 -0.857605 2.40675 0.00517743 
0.30799 -0.275319 -1.14168 -2.97895 0.0246967 0.521509 0.817986 0.292979 -0.149563 1.21334 0.272789 -1.08612 -1.72618 -0.862965 -0.992645 -1.07827 -0.310549 -3.19808 -1.51527 -0.548922 0.948637 0.894879 -0.294538 1.90424 3.15388 -1.9252 1.65865 -2.23104 -0.857605 2.40675 0.00517743 
0.30799 -0.275319 -1.14168 -2.97895 0.0246967 0.521509 0.817986 0.292979 -0.149563 1.21334 0.271787 -1.10132 -1.61433 -0.814759 -0.944259 -1.07827 -0.310549 -3.19808 -1.51527 -0.548922 0.948637 0.894879 -0.294538 1.90424 3.15388 -1.9252 1.65865 -2.23104 -0.857605 2.40675 0.00517743 
